{"obs_dim": 32, "action_dim": 4, "activation": "relu", "layers": [{"w": [[0.05479193106293678, -0.20248232781887054, -0.053011368960142136, 0.17362457513809204, 0.2168625295162201, -0.11832055449485779, -0.10888178646564484, -0.1602805107831955, 0.047303274273872375, -0.0707564428448677, 0.007108685094863176, 0.09874187409877777, -0.02583409659564495, 0.09650106728076935, -0.16421626508235931, -0.017428653314709663, 0.09005094319581985, 0.0816531628370285, -0.03885732591152191, -0.27956685423851013, -0.05946434661746025, 0.08142927289009094, 0.08820069581270218, -0.5552791357040405, -0.6730292439460754, -0.387468546628952, 0.0737827718257904, -0.015258537605404854, 0.176799014210701, -0.14343060553073883, -0.26296985149383545, 0.15870057046413422], [-0.26143622398376465, 0.38006943464279175, -0.2192302793264389, 0.05327185243368149, -0.1891825944185257, -0.1683347076177597, 0.06263287365436554, -0.143840491771698, -0.05538298934698105, -0.18597804009914398, -0.2509215176105499, 0.47254979610443115, 0.27773335576057434, 0.043496016412973404, -0.2444632351398468, -0.37248727679252625, 0.28082361817359924, 0.011918974108994007, -0.1162300631403923, -0.24024169147014618, -0.2565993666648865, 0.0337030254304409, -0.0919952467083931, -0.07810217887163162, -0.07040848582983017, -0.32503026723861694, 0.17463287711143494, 0.2171929031610489, -0.1246071383357048, 0.06746421009302139, -0.04018877446651459, 0.1787465214729309], [-0.30680230259895325, -0.3993093967437744, -0.3343232572078705, -0.003957039676606655, 0.15864066779613495, 0.1815999150276184, 0.0061446684412658215, -0.3135039806365967, -0.19644808769226074, 0.0496009923517704, -0.047325387597084045, 0.11830556392669678, -0.1010933592915535, 0.04439729452133179, -0.07471628487110138, 0.3291056156158447, -0.41985026001930237, -0.06809293478727341, -0.1669294685125351, -0.3684707283973694, 0.2152252048254013, -0.09952704608440399, -0.10938914865255356, -0.04579654335975647, -0.15598350763320923, -0.3347323536872864, -0.12616245448589325, -0.11833224445581436, 0.04761582240462303, -0.1315852850675583, -0.12849724292755127, -0.08174324780702591], [0.022850247099995613, -0.20142360031604767, -0.30886411666870117, 0.0546872615814209, -0.31442779302597046, -0.08768896758556366, -0.13347813487052917, -0.013929605484008789, 0.19705398380756378, -0.27479395270347595, -0.35000020265579224, 0.08684810250997543, 0.08182478696107864, 0.3967404067516327, 0.22639484703540802, -0.1293785572052002, 0.01596975512802601, -0.27233850955963135, 0.08248592168092728, -0.36043792963027954, -0.04516095295548439, 0.054881274700164795, -0.4501114785671234, 0.38216957449913025, -0.12267263978719711, 0.1396816521883011, -0.15339355170726776, -0.3957351744174957, 0.04533836618065834, -0.06922808289527893, 0.1786389797925949, -0.3476792573928833], [-0.1173754408955574, -0.033810049295425415, -0.12748005986213684, -0.29379335045814514, 0.26689860224723816, -0.19139856100082397, -0.17405188083648682, -0.10890524834394455, 0.22800926864147186, 0.12040610611438751, 0.11433587968349457, 0.01690797321498394, 0.1260264664888382, 0.13997025787830353, 0.3669191002845764, 0.17005814611911774, 0.1406288743019104, 0.12987101078033447, -0.11073271930217743, -0.10907626897096634, 0.2895926535129547, 0.19505010545253754, 0.01909925602376461, -0.3365944027900696, -0.5830296874046326, -0.15173982083797455, -0.038525909185409546, 0.2618253231048584, 0.37794241309165955, -0.035272546112537384, -0.14161600172519684, -0.08057840168476105], [-0.24236837029457092, 0.019890818744897842, 0.21498779952526093, 0.19960631430149078, 0.1219400018453598, -0.0025912965647876263, -0.06907623261213303, -0.19619806110858917, -0.12054035067558289, -0.1599925458431244, 0.1779986023902893, 0.5305145978927612, -0.33626222610473633, -0.32898852229118347, 0.22384189069271088, 0.0577748604118824, 0.19969449937343597, -0.04372444376349449, -0.2297312468290329, -0.20805475115776062, 0.5063890218734741, 0.4361010789871216, -0.03856030851602554, -0.12743686139583588, -0.3669782280921936, -0.2563365697860718, -0.14686164259910583, 0.014354285784065723, -0.11067106574773788, 0.04967713728547096, -0.19991269707679749, 0.15305978059768677], [0.5237101912498474, -0.2069101482629776, -0.3950781226158142, -0.080370232462883, 0.04624291881918907, -0.3415333330631256, -0.270588219165802, -0.2443099319934845, -0.4820212125778198, -0.03095783106982708, -0.21806000173091888, 0.011109599843621254, 0.025601506233215332, -0.009208307601511478, -0.07429331541061401, 0.09863324463367462, 0.2468094527721405, 0.011760054156184196, -0.13142308592796326, -0.08874998241662979, -0.26829370856285095, 0.11487521231174469, 0.27328550815582275, -0.12888792157173157, 0.23788432776927948, 0.5667884349822998, 0.04053434357047081, -0.24829289317131042, -0.10246802866458893, 0.0348123162984848, -0.05066152662038803, -0.03592967614531517], [-0.3015711009502411, -0.03506778925657272, 0.008212602697312832, 0.28882482647895813, 0.22666481137275696, -0.049488045275211334, -0.14942479133605957, -0.3048613667488098, 0.08501351624727249, 0.38489753007888794, 0.20907309651374817, 0.06732486188411713, 0.4788283705711365, 0.22166408598423004, 0.15333843231201172, 0.09427037835121155, 0.627424955368042, 0.12347497045993805, -0.12693561613559723, -0.0847097784280777, -0.03528928384184837, -0.02771596610546112, -0.24206338822841644, -0.37491974234580994, -0.42606258392333984, -0.33332398533821106, 0.037395961582660675, -0.03317985683679581, 0.02757047861814499, -0.15666279196739197, -0.3209822177886963, -0.03352491185069084], [-0.18702906370162964, -0.5572725534439087, 0.02411908283829689, 0.8994991183280945, 0.6097049117088318, -0.3246232569217682, -0.07193252444267273, -0.18849045038223267, 0.029468823224306107, 0.3827866315841675, 0.04193407669663429, 0.11886481195688248, -0.2553194463253021, -0.0875677689909935, 0.1859469711780548, -0.060184840112924576, 0.1515740156173706, 0.028286706656217575, 0.1862834244966507, -0.24666234850883484, -0.014083649031817913, 0.21243274211883545, 0.1928463578224182, -0.1542370766401291, -0.274626761674881, -0.5096891522407532, -0.00283025368116796, -0.155248761177063, -0.017920522019267082, -0.0435623936355114, -0.11206824332475662, -0.4356059432029724], [-0.10468877851963043, -0.2145852893590927, 0.0757870227098465, 0.128754124045372, 0.48751458525657654, -0.24010597169399261, -0.34200406074523926, -0.26845207810401917, -0.2012343853712082, -0.02436523139476776, 0.14699459075927734, -0.5772910118103027, -0.06457783281803131, -0.09100405871868134, 0.8125302195549011, 0.0901106521487236, -0.14064949750900269, -0.12317762523889542, 0.02117646113038063, 0.13174131512641907, 0.15385974943637848, -0.05115573853254318, 0.04319917783141136, -0.2857964038848877, -0.14809773862361908, -0.27091076970100403, -0.5607013702392578, -0.38845449686050415, -0.11771275848150253, 0.28502219915390015, -0.17590118944644928, -0.4112235903739929], [-0.33349573612213135, -0.025384947657585144, -0.16689984500408173, -0.13547305762767792, 0.11070311069488525, 0.06685902178287506, 0.23699438571929932, 0.2215782105922699, 0.06769546866416931, 0.2553044855594635, -0.20715858042240143, 0.10237600654363632, 0.1796940714120865, 0.09510248154401779, 0.22390848398208618, -0.09399020671844482, 0.34150922298431396, -0.09126895666122437, -0.0012734949123114347, 0.5074754357337952, 0.20261062681674957, 0.20033130049705505, 0.11950703710317612, 0.0531613752245903, -0.17608200013637543, -0.34406352043151855, -0.0016531295841559768, -0.14043626189231873, -0.012454286217689514, -0.11026211827993393, -0.1509769707918167, 0.27859827876091003], [-0.4776640236377716, 0.009562095627188683, -0.6558770537376404, -0.15790854394435883, -0.27304622530937195, -0.03619085252285004, -0.25519728660583496, -0.0471138171851635, -0.3385068476200104, -0.07183406502008438, 0.5122811198234558, 0.4180140197277069, -0.16945424675941467, 0.10195979475975037, 0.09174410253763199, -0.04420707747340202, -0.048830144107341766, 0.029627520591020584, -0.22071273624897003, 0.251248836517334, -0.33097338676452637, -0.047579050064086914, 0.18553964793682098, 0.12404759228229523, 0.05137445032596588, -0.24535676836967468, 0.011248177848756313, -0.13647426664829254, -0.11635154485702515, 0.029645146802067757, -0.5398889780044556, -0.01855607144534588], [-0.09860113263130188, 0.21963202953338623, -0.21856792271137238, -0.03698035702109337, 0.07452330738306046, -0.2922157049179077, -0.19714586436748505, -0.12467920035123825, -0.5214357376098633, 0.0900801494717598, 0.008527582511305809, 0.16932298243045807, -0.26265788078308105, 0.04964296892285347, 0.0945478305220604, -0.27009090781211853, 0.11622268706560135, 0.09926517307758331, -0.12014378607273102, -0.061184391379356384, -0.2304249107837677, 0.03462531790137291, 0.1110721305012703, -0.4499269723892212, -0.4669145345687866, -0.23175719380378723, -0.1469404250383377, 0.26642006635665894, 0.02585943602025509, -0.32305097579956055, -0.028655823320150375, -0.031415004283189774], [0.062346603721380234, -0.09922326356172562, 0.07252508401870728, -0.0025959245394915342, 0.058995988219976425, -0.019288256764411926, -0.03341880813241005, 0.024303289130330086, 0.09114085137844086, 0.231753870844841, 0.1353611797094345, 0.116439089179039, -0.12140434980392456, -0.0152398981153965, -0.22034533321857452, -0.01175178587436676, -0.1285676509141922, 0.06397511065006256, 0.06474660336971283, -0.4740118682384491, 0.019320525228977203, 0.03376917541027069, -0.22015312314033508, -0.6462908983230591, -0.6775734424591064, -0.33026474714279175, 0.15594729781150818, 0.16145886480808258, 0.27549999952316284, 0.09607858210802078, -0.22448040544986725, 0.08875688910484314], [-0.3304195702075958, 0.553069531917572, 0.055761806666851044, 0.160178080201149, 0.39864030480384827, 0.02731170319020748, 0.4322543740272522, 0.23229524493217468, 0.01656591333448887, -0.1080012395977974, 0.2568312883377075, 0.2945939600467682, -0.10821694880723953, 0.11294090747833252, -0.1329454630613327, 0.1102679967880249, 0.02716176211833954, 0.04677661135792732, -0.16035374999046326, -0.22313687205314636, -0.2867194414138794, -0.30728331208229065, -0.5009357929229736, -0.2880781888961792, -0.4915396273136139, -0.4049561321735382, -0.0833052471280098, -0.09704141318798065, 0.32046613097190857, 0.004510319791734219, -0.001685603754594922, -0.16511069238185883], [-0.037144992500543594, 0.5278443098068237, -0.018749110400676727, -0.50147944688797, 0.2260536104440689, -0.44073930382728577, 0.12915341556072235, 0.32129377126693726, 0.2634705901145935, -0.1012941300868988, -0.19022199511528015, -0.18017978966236115, -0.3779742121696472, -0.10972686856985092, -0.04104642942547798, -0.10460228472948074, -0.37850919365882874, -0.05594310164451599, 0.052448712289333344, -0.05499950423836708, -0.14649246633052826, 0.035422779619693756, 0.2940702736377716, 0.2329145073890686, -0.156392902135849, -0.11824232339859009, 0.1511390507221222, 0.07605498284101486, 0.2516463100910187, 0.0015628383262082934, 0.09403805434703827, -0.04828069359064102], [-0.18426069617271423, 0.29055556654930115, 0.4408131539821625, 0.17656251788139343, 0.14008426666259766, -0.15655574202537537, -0.30193349719047546, 0.2871333062648773, -0.4109276235103607, -0.13998369872570038, -0.055545907467603683, -0.1994290053844452, 0.5233722925186157, -0.18973302841186523, -0.15453636646270752, -0.4218337833881378, 0.1435193121433258, 0.35783693194389343, 0.2581639885902405, 0.13835327327251434, -0.013731460087001324, 0.00010127004497917369, 0.08534063398838043, 0.17731843888759613, 0.07915309071540833, -0.5414144396781921, -0.158224418759346, -0.2330472469329834, -0.19650812447071075, 0.12019528448581696, 0.12968388199806213, -0.2867054343223572], [-0.31259310245513916, -0.20560762286186218, 0.2736572027206421, -0.17750020325183868, -0.07836034148931503, 0.1703343540430069, -0.3433533012866974, -0.20475593209266663, -0.3267187774181366, -0.11018253117799759, -0.1936621516942978, -0.3726979196071625, 0.08804060518741608, -0.40157389640808105, -0.1764347404241562, -0.012612980790436268, -0.3124971389770508, 0.08580875396728516, -0.15456049144268036, 0.0025018660817295313, 0.07089436054229736, 0.005831978749483824, -0.08776900172233582, -0.11127254366874695, -0.2785396873950958, -0.3249329626560211, 0.04565632715821266, -0.15419983863830566, 0.07308235764503479, -0.04654746875166893, -0.2705921232700348, -0.3843017518520355], [0.03701278194785118, -0.26724496483802795, 0.4465150535106659, -0.0648813545703888, 0.4100421667098999, -0.1588389277458191, -0.3670639991760254, 0.015239068306982517, -0.1391402631998062, -0.3339368999004364, 0.028244122862815857, -0.44100141525268555, 0.25795039534568787, 0.20309701561927795, 0.003423064947128296, 0.015384547412395477, -0.013517812825739384, 0.2958860993385315, -0.16519249975681305, 0.27382972836494446, 0.18470926582813263, -0.17281043529510498, -0.2544236481189728, 0.07440207153558731, -0.01940249837934971, -0.23338328301906586, 0.10236475616693497, 0.029083939269185066, -0.14954234659671783, 0.19321154057979584, 0.12563973665237427, -0.1011027991771698], [-0.02045605704188347, 0.3844345211982727, 0.04096382111310959, -0.33594828844070435, -0.23882955312728882, -0.15309861302375793, -0.39452290534973145, -0.08245249092578888, -0.37818199396133423, -0.19219310581684113, 0.2567456364631653, 0.3246423006057739, 0.14414454996585846, 0.22996844351291656, -0.1287440061569214, 0.18638934195041656, -0.16998593509197235, 0.5117053985595703, -0.02068338915705681, 0.1454963982105255, -0.11324470490217209, -0.3026775121688843, 0.29634857177734375, -0.002307100920006633, -0.31198355555534363, 0.11555341631174088, -0.04385670647025108, 0.08819480240345001, -0.17909899353981018, -0.06098294258117676, -0.4300294518470764, 0.188554048538208], [-0.31682339310646057, -0.18859997391700745, 0.03484135866165161, -0.09406086057424545, 0.21733710169792175, 0.14752589166164398, -0.2656351625919342, -0.19565506279468536, 0.07871107757091522, -0.05781034007668495, -0.0919380709528923, -0.29020053148269653, 0.14409033954143524, -0.06848801672458649, 0.018336698412895203, -0.06667739897966385, 0.25127843022346497, 0.038310419768095016, 0.36973080039024353, 0.10378054529428482, 0.4368962347507477, 0.09974309802055359, 0.010363751091063023, -0.07917826622724533, -0.7120754718780518, -0.2387743890285492, 0.043415773659944534, 0.09284485876560211, 0.2357500046491623, -0.0899956077337265, -0.3900584876537323, 0.026415042579174042], [-0.21962709724903107, 0.2983554005622864, 0.40808188915252686, 0.2509938180446625, 0.3748444616794586, 0.15955744683742523, 0.07051461935043335, 0.025972658768296242, 0.021041804924607277, -0.10069391876459122, 0.1745869666337967, -0.01450846903026104, 0.061786994338035583, 0.018805649131536484, -0.24015061557292938, -0.16975408792495728, -0.3028768002986908, -0.07820373773574829, -0.0972675085067749, -0.12363477051258087, -0.3549741506576538, -0.28388118743896484, -0.31183841824531555, -0.22158865630626678, 0.03529803082346916, -0.8732711672782898, 0.11209145933389664, -0.11834953725337982, -0.03012770414352417, 0.012882929295301437, -0.03180520609021187, -0.10942910611629486], [-0.2438822239637375, 0.007622051984071732, 0.322359561920166, 0.1992950439453125, 0.20391643047332764, -0.12193989753723145, 0.014088437892496586, 0.09094078838825226, 0.19854669272899628, -0.12968750298023224, -0.060041286051273346, 0.1512121558189392, -0.00971835944801569, -0.015223815105855465, 0.03975822031497955, 0.13214536011219025, 0.04144851863384247, -0.15300403535366058, -0.05326855182647705, -0.31842613220214844, 0.14547346532344818, -0.20907095074653625, -0.3178248107433319, -0.5981096625328064, -0.46822085976600647, -0.24924568831920624, -0.05880669504404068, 0.051407136023044586, 0.25730520486831665, 0.11766985803842545, -0.14371387660503387, 0.30177822709083557], [-0.5125747919082642, -0.18492473661899567, -0.1635158210992813, -0.27319785952568054, 0.013577776961028576, 0.045317161828279495, -0.23869121074676514, 0.09467094391584396, 0.35766857862472534, 0.05501376837491989, 0.042702097445726395, -0.012263315729796886, -0.04754498228430748, 0.043544284999370575, -0.25992798805236816, 0.40359172224998474, -0.06902386993169785, 0.1741810441017151, -0.10052013397216797, 0.08337149769067764, 0.007350204978138208, 0.5767810940742493, 0.22019009292125702, 0.09897419810295105, -0.13812194764614105, -0.4554416239261627, -0.09829982370138168, 0.06056823953986168, -0.005279397126287222, -0.10063867270946503, -0.4601776897907257, -0.08083829283714294], [-0.5864677429199219, -0.08267205208539963, 0.05120038613677025, 0.12843255698680878, 0.013790946453809738, -0.17784936726093292, -0.3500053286552429, 0.23990604281425476, -0.01724718138575554, -0.009677784517407417, -0.03330574929714203, 0.05237346887588501, 0.07065890729427338, -0.0036396898794919252, 0.008847502991557121, 0.18234890699386597, -0.22619980573654175, -0.025277618318796158, -0.06993087381124496, -0.060990504920482635, 0.05499451607465744, 0.05892687663435936, 0.2196304053068161, -0.008389495313167572, -0.23750492930412292, -0.3642103672027588, -0.02282012067735195, -0.16861234605312347, -0.11073154956102371, -0.06273195892572403, -0.4097309112548828, -0.23769894242286682], [-0.08012627065181732, 0.04038872942328453, 0.06752672046422958, -0.08188506960868835, 0.05496855452656746, -0.11102890223264694, -0.19795189797878265, -0.06485053151845932, -0.12670016288757324, -0.03580067306756973, -0.07106705754995346, -0.15740080177783966, 0.051665861159563065, 0.20192602276802063, 0.12141383439302444, 0.058299720287323, 0.199696883559227, 0.1055339127779007, 0.26305219531059265, -0.11141037940979004, -0.03383884206414223, 0.28973737359046936, 0.4078449606895447, -0.2908002436161041, -0.7909635901451111, -0.15306559205055237, -0.5140784382820129, 0.7130545377731323, 0.5495564341545105, -0.3577604293823242, -0.39099839329719543, -0.2827184200286865], [-0.2753622829914093, -0.34935158491134644, 0.3035973608493805, 0.234545037150383, -0.012492314912378788, -0.009891582652926445, -0.10624079406261444, 0.2638893127441406, 0.2081722915172577, -0.09855323284864426, 0.5366864204406738, 0.21657294034957886, 0.37319502234458923, -0.01923169381916523, -0.2647480368614197, -0.14872491359710693, 0.10466421395540237, -0.25489240884780884, -0.1687450408935547, 0.012478133663535118, -0.11655271798372269, -0.46240317821502686, -0.47172850370407104, -0.1599508374929428, -0.40984103083610535, -0.2317514717578888, 0.07336143404245377, 0.3096884787082672, 0.1432582437992096, 0.02760886773467064, -0.07093440741300583, -0.09517880529165268], [0.061126988381147385, 0.37144458293914795, 0.0631064623594284, -0.2017364799976349, -0.2473176121711731, -0.10618050396442413, -0.4263172149658203, -0.01429789699614048, -0.09081043303012848, 0.229509636759758, -0.41413986682891846, 0.043388381600379944, -0.24535579979419708, 0.1723409742116928, -0.0395418256521225, -0.09319231659173965, 0.014490005560219288, -0.2220156490802765, -0.14780500531196594, -0.31845390796661377, -0.09976626187562943, 0.008836839348077774, -0.1790722757577896, -0.27858349680900574, -0.2603404223918915, -0.1899637132883072, -0.013031993061304092, 0.21145042777061462, 0.043621331453323364, 0.031326476484537125, -0.04108373820781708, -0.2678837776184082], [-0.23860245943069458, 0.038696806877851486, -0.05751526355743408, -0.24208176136016846, 0.1581130176782608, 0.05014318227767944, -0.06922447681427002, -0.04216000437736511, 0.38720187544822693, 0.062229786068201065, -0.20380344986915588, -0.11319901049137115, 0.41566064953804016, 0.009185051545500755, 0.351287841796875, -0.14005358517169952, -0.13036364316940308, 0.5866987705230713, 0.04365064576268196, 0.25396037101745605, -0.05575145035982132, 0.43138742446899414, 0.3679310083389282, -0.21604309976100922, -0.3637619614601135, -0.37165120244026184, -0.059062592685222626, -0.07068246603012085, -0.06689620018005371, 0.01394210197031498, -0.12183137983083725, -0.32543036341667175], [-0.16581329703330994, -0.22673968970775604, -0.20007726550102234, 0.013753633014857769, -0.22083917260169983, -0.24912309646606445, -0.6170385479927063, -0.5093916058540344, -0.09572290629148483, -0.0018826845334842801, -0.2676005959510803, -0.17196640372276306, -0.14461155235767365, 0.2768530249595642, 0.08371558040380478, -0.2678980827331543, -0.25715145468711853, -0.34378039836883545, 0.2878158986568451, -0.0814807265996933, 0.17093025147914886, -0.13384243845939636, 0.03679269179701805, 0.35640379786491394, -0.22820401191711426, -0.1341353952884674, -0.042729880660772324, 0.04579444229602814, 0.14608441293239594, -0.10840508341789246, -0.046413831412792206, 0.027003265917301178], [-0.3972950577735901, -0.26998621225357056, 0.2295433133840561, 0.22307051718235016, 0.28134194016456604, 0.0013443444622680545, -0.1668461412191391, -0.08741635084152222, 0.04325283318758011, 0.019530735909938812, 0.018919700756669044, -0.02129039540886879, -0.3687756359577179, 0.06725975126028061, 0.10395016521215439, 0.21744507551193237, -0.10398625582456589, -0.022002430632710457, 0.2442559003829956, 0.06928731501102448, 0.01261207740753889, 0.22678551077842712, 0.07616811245679855, 0.07890129089355469, -0.09745269268751144, -0.38378170132637024, -0.2059987485408783, -0.3238765001296997, 0.04288538917899132, -0.04243914410471916, -0.27191412448883057, -0.38443106412887573], [-0.04056457802653313, 0.22585399448871613, -0.018423043191432953, -0.35496872663497925, 0.052458230406045914, 0.19473472237586975, -0.2995602488517761, -0.15761156380176544, -0.11132559925317764, -0.010888874530792236, -0.2011185884475708, 0.15498489141464233, -0.28428810834884644, -0.03452195227146149, -0.13663271069526672, -0.08699756860733032, 0.14302901923656464, 0.08727435022592545, 0.19110314548015594, -0.09996507316827774, -0.030973991379141808, -0.22207245230674744, 0.06578054279088974, -0.5346106290817261, -0.51597660779953, -0.04959981516003609, 0.3006439208984375, -0.24608150124549866, 0.18905676901340485, 0.2520412504673004, 0.016686460003256798, 0.1679736226797104], [-0.040834374725818634, -0.01233910396695137, -0.30404239892959595, -0.2562020421028137, -0.11546243727207184, 0.006809205282479525, 0.3126387894153595, -0.04466240853071213, 0.27441585063934326, 0.04915395379066467, 0.059709332883358, -0.005864495411515236, -0.279722660779953, -0.11090175807476044, 0.10698999464511871, -0.06446308642625809, -0.4260319769382477, 0.03612852096557617, -0.056210458278656006, -0.031338099390268326, -0.24363087117671967, 0.05375494062900543, -0.09291676431894302, 0.09305839240550995, -0.3661552965641022, -0.009096135385334492, -0.11687488853931427, 0.5494588613510132, -0.37718281149864197, -0.37560391426086426, -0.20830313861370087, 0.015942981466650963], [0.23054538667201996, -0.28307586908340454, -0.058502279222011566, 0.19489261507987976, 0.10430127382278442, -0.019083790481090546, -0.6380428671836853, 0.022368941456079483, 0.4349954128265381, 0.11664840579032898, 0.07431352883577347, -0.4304584562778473, -0.4348929822444916, 0.052589498460292816, -0.18723860383033752, -0.01187269389629364, -0.17019987106323242, -0.2248430848121643, -0.20308999717235565, 0.14374585449695587, -0.2074742317199707, 0.10038301348686218, -0.14525198936462402, -0.1594170182943344, 0.38648200035095215, 0.020034370943903923, -0.09775597602128983, -0.015034639276564121, 0.09058067947626114, -0.13782547414302826, 0.12718208134174347, -0.3329349458217621], [0.11141014844179153, -0.16356347501277924, -0.05271193012595177, -0.051192592829465866, 1.006818175315857, -0.018215380609035492, -0.1012878492474556, -0.16699819266796112, 0.06941498816013336, 0.6922251582145691, -0.0020111326593905687, -0.07003393769264221, 0.10802066326141357, 0.02840975672006607, 0.6446289420127869, 0.012102029286324978, -0.2465692162513733, 0.06225604936480522, 0.21229113638401031, 0.4494190216064453, -0.12369557470083237, -0.1370067000389099, -0.2559964060783386, -0.272897332906723, -0.36893969774246216, -0.2573593556880951, 0.24050819873809814, 0.12442024052143097, 0.03649299219250679, -0.031241867691278458, 0.40065956115722656, -0.2503373622894287], [0.06515807658433914, -0.22508803009986877, -0.14269490540027618, 0.10298863798379898, -0.2760723829269409, -0.425653338432312, -0.4917287826538086, 0.11089703440666199, -0.0633128434419632, -0.22934257984161377, -0.1574493944644928, -0.38659536838531494, -0.19801728427410126, -0.16993017494678497, 0.044804662466049194, -0.3256739377975464, -0.10232242196798325, 0.028415821492671967, 0.7145818471908569, 0.02741735242307186, -0.06459568440914154, 0.7817171216011047, 0.6476747393608093, 0.5345715880393982, -0.15261951088905334, 0.018221000209450722, 0.4122824966907501, 0.28984296321868896, 0.03855682164430618, -0.16404128074645996, -0.3297589123249054, -0.08551044017076492], [0.11377864331007004, -0.2699543833732605, -0.22643926739692688, -0.28329646587371826, -0.32907834649086, 0.254319965839386, 0.15449920296669006, 0.03592611104249954, -0.11215052008628845, -0.1932409107685089, -0.2124992161989212, 0.05550525709986687, -0.14422191679477692, -0.3231176733970642, -0.5426442623138428, 0.2894796133041382, 0.025922859087586403, 0.307928204536438, 0.11506930738687515, 0.18757157027721405, -0.3433997631072998, -0.14663808047771454, 0.24475780129432678, 0.33627068996429443, 0.4527583718299866, 0.3329436779022217, 0.14160211384296417, -0.2892078757286072, -0.23509402573108673, 0.21623441576957703, -0.20152543485164642, 0.08022035658359528], [-0.4057648479938507, 0.14877933263778687, -0.1715434491634369, 0.018299905583262444, 0.14999526739120483, -0.11802830547094345, 0.15339574217796326, 0.06238904967904091, 0.15767431259155273, -0.1739010065793991, 0.1605956256389618, 0.07676630467176437, -0.1095675379037857, -0.24261951446533203, -0.0702284425497055, 0.02809198945760727, -0.03959345445036888, -0.07313036173582077, 0.19699442386627197, -0.31965357065200806, 0.3060726523399353, 0.36567550897598267, 0.20962031185626984, 0.05286844074726105, -0.24847936630249023, -0.42735210061073303, -0.04775679111480713, 0.02876090444624424, 0.06207401677966118, 0.08212517946958542, -0.3933369517326355, 0.05342462658882141], [0.10721966624259949, 0.643485963344574, 0.3328173756599426, 0.23275694251060486, 0.2708280384540558, -0.12704123556613922, 0.059405289590358734, -0.20359031856060028, -0.0012866072356700897, -0.2946873605251312, 0.032561421394348145, 0.07979299128055573, 0.32426917552948, -0.0873156487941742, 0.16156859695911407, -0.3695010542869568, 0.2130955159664154, 0.2949490547180176, 0.044139403849840164, 0.22757157683372498, -0.3959936797618866, -0.17752981185913086, 0.1881818175315857, -0.16318176686763763, -0.15953035652637482, 0.08733351528644562, 0.05169697105884552, -0.017008231952786446, -0.21943125128746033, -0.17975358664989471, 0.2420230209827423, -0.06221754103899002], [-0.06940796226263046, 0.510141134262085, -0.0010261820862069726, 0.23518045246601105, 0.3268384039402008, 0.1138102114200592, -0.04071684181690216, -0.3101784884929657, -0.4017554223537445, -0.35616418719291687, 0.03955160453915596, 0.14165428280830383, -0.30094191431999207, -0.23968224227428436, -0.09566085040569305, 0.1754838079214096, 0.37082135677337646, -0.23317557573318481, 0.0648702010512352, 0.2677805423736572, -0.09749608486890793, 0.1620631366968155, -0.22253867983818054, 0.043960731476545334, 0.018779223784804344, -0.1073247417807579, 0.02529311366379261, 0.015282491222023964, 0.15954914689064026, -0.10990680754184723, 0.017881812527775764, -0.00938329380005598], [-0.3976389169692993, -0.09200621396303177, -0.2532395124435425, -0.38578659296035767, 0.04657638072967529, -0.18028642237186432, -0.26351428031921387, -0.290156751871109, -0.3637950122356415, 0.19400279223918915, 0.015782803297042847, -0.2362212836742401, 0.24366578459739685, -0.37090760469436646, 0.2961050570011139, 0.2457665205001831, -0.09561184048652649, 0.02107064053416252, -0.06512977182865143, -0.16430270671844482, 0.5361672639846802, 0.22350768744945526, 0.40790385007858276, -0.019061416387557983, -0.12434296309947968, -0.01931719481945038, -0.052613504230976105, 0.0541527234017849, -0.04218890890479088, 0.04828113317489624, -0.26749512553215027, -0.22318463027477264], [-0.330758273601532, 0.3507218062877655, 0.10018269717693329, -0.10723888128995895, -0.057641200721263885, 0.0695924311876297, 0.1157875806093216, 0.27991941571235657, 0.05405335873365402, 0.03961033374071121, 0.0013039082987233996, -0.11147512495517731, -0.06469125300645828, 0.14094078540802002, 0.11561290174722672, 0.14337517321109772, -0.48743876814842224, -0.22168248891830444, -0.008028288371860981, -0.40647900104522705, -0.20580971240997314, -0.36748021841049194, -0.1960701197385788, 0.015185549855232239, -0.0028668618761003017, 0.32800596952438354, -0.0746416449546814, -0.19060102105140686, 0.18427421152591705, 0.30083587765693665, -0.19312429428100586, -0.4855533242225647], [-0.12523490190505981, 0.42256200313568115, 0.39078718423843384, 0.42275622487068176, 0.15999926626682281, -0.07067300379276276, 0.12445467710494995, -0.20894046127796173, -0.16632530093193054, -0.17635178565979004, -0.13838618993759155, 0.029991906136274338, -0.0267404243350029, -0.4385802447795868, 0.04508126527070999, 0.21709515154361725, -0.22244316339492798, 0.3272387385368347, -0.053635820746421814, 0.10349957644939423, 0.14910072088241577, -0.4286881387233734, -0.1029726192355156, -0.027855969965457916, -0.10365945845842361, -0.20519793033599854, 0.17067687213420868, 0.09515807032585144, -0.35494327545166016, 0.19676746428012848, -0.14535798132419586, -0.06084412708878517], [0.022332321852445602, -0.00010111054871231318, 0.36667293310165405, 0.20505857467651367, 0.3765462338924408, 0.25614097714424133, -0.05401841923594475, -0.08094630390405655, -0.17172871530056, 0.07678942382335663, -0.09614400565624237, 0.13562723994255066, -0.1337670236825943, -0.44600942730903625, 0.22817374765872955, -0.2770380675792694, -0.34518322348594666, -0.336140900850296, 0.15213458240032196, 0.17552107572555542, -0.3826688230037689, -0.4139763116836548, -0.2624320387840271, -0.1602354645729065, -0.042622242122888565, -0.4679734408855438, -0.11934780329465866, 0.1330380141735077, 0.23805361986160278, -0.032120466232299805, 0.10900292545557022, -0.016980955377221107], [-0.1613689810037613, -0.3410511910915375, 0.34232214093208313, 0.3710280954837799, 0.2937990725040436, 0.08286165446043015, -0.0988384559750557, -0.05613967776298523, 0.3128257691860199, -0.0019263917347416282, -0.19985134899616241, -0.16385531425476074, 0.16749027371406555, 0.03406067192554474, -0.019199490547180176, 0.37442636489868164, 0.07282275706529617, -0.043188706040382385, -0.15909813344478607, -0.19737114012241364, 0.38712453842163086, 0.17331229150295258, 0.03397097438573837, -0.22485701739788055, -0.30839353799819946, -0.3208633065223694, -0.12240134924650192, -0.18238407373428345, -0.13680583238601685, 0.009520689025521278, -0.26628753542900085, -0.08175221085548401], [0.3198777437210083, 0.07707475870847702, -0.44319573044776917, -0.1826389878988266, 0.011373812332749367, 0.7252392172813416, -0.002852055476978421, 0.01802476868033409, 0.060168977826833725, -0.2499358355998993, 0.19048310816287994, 0.1594349443912506, 0.3073294162750244, -0.10878469794988632, 0.1990310400724411, 0.03008970059454441, -0.06907080858945847, 0.03277207165956497, 0.03686743974685669, 0.20030882954597473, 0.24250829219818115, -0.10515311360359192, 0.05484415590763092, -0.20763589441776276, 0.14501920342445374, 0.05129910260438919, -0.006640081759542227, -0.03568742051720619, -0.14320509135723114, 0.1273769587278366, 0.1252707690000534, -0.029103105887770653], [0.055720601230859756, -0.043389372527599335, -0.08286987990140915, -0.25219741463661194, 0.046407751739025116, 0.03212225064635277, -0.29054856300354004, 0.01674492470920086, -0.3171098828315735, -0.09742583334445953, 0.12411453574895859, -0.2570860981941223, -0.16011561453342438, -0.3352372944355011, 0.2353675812482834, -0.10738836228847504, -0.022587381303310394, 0.14300408959388733, 0.05514997988939285, -0.04277142882347107, 0.2091492861509323, -0.31166326999664307, -0.03161522001028061, -0.3952459394931793, -0.2031107395887375, -0.12656064331531525, 0.24357397854328156, 0.23741549253463745, 0.15276384353637695, 0.07393046468496323, -0.10852213948965073, -0.09863709658384323], [-0.030332360416650772, 0.03110627643764019, 0.06025153398513794, -0.07469751685857773, 0.3087901473045349, -0.003622864605858922, -0.09024888277053833, 0.10240940004587173, -0.009721629321575165, 0.04645867273211479, 0.10352479666471481, 0.16136014461517334, -0.009117403998970985, 0.037994612008333206, -0.10316377878189087, -0.0584360770881176, -0.08174912631511688, -0.014123102650046349, 0.21794787049293518, -0.09420096129179001, 0.22737354040145874, 0.14496181905269623, 0.04602590203285217, -0.24225908517837524, -0.7103673219680786, -0.2345891147851944, -0.1294509321451187, 0.6983165144920349, 0.6363109350204468, -0.12794890999794006, -0.03868774324655533, -0.1337956190109253], [0.20322854816913605, 0.24016229808330536, -0.10962824523448944, 0.08761053532361984, -0.01847640611231327, -0.27401646971702576, 0.5593887567520142, 0.12106829881668091, 0.38508251309394836, 0.3280174136161804, -0.22797144949436188, 0.1034950315952301, -0.27646973729133606, 0.054824113845825195, -0.2926124036312103, -0.1092594787478447, -0.048213403671979904, -0.04999500885605812, -0.03707319125533104, -0.05226556584239006, -0.005167105700820684, 0.025970526039600372, -0.2331477701663971, 0.15631121397018433, 0.12164294719696045, 0.35093504190444946, 0.1845371425151825, -0.03486203774809837, 0.09385483711957932, 0.14906814694404602, 0.10224713385105133, -0.22014684975147247], [-0.1534312665462494, 0.11282726377248764, 0.18689845502376556, 0.23641203343868256, 0.06283331662416458, -0.12058527022600174, -0.13745637238025665, 0.7193978428840637, -0.34039196372032166, -0.2939237058162689, 0.0996304601430893, -0.06865839660167694, 0.45098593831062317, 0.20307089388370514, -0.11047039180994034, -0.5974299311637878, -0.3095780909061432, 0.0909605622291565, -0.20209936797618866, -0.03437964618206024, 0.09885403513908386, 0.05058811977505684, 0.03320090100169182, 0.1473519653081894, 0.0695795789361, 0.2008373886346817, -0.1065649688243866, -0.16608518362045288, -0.037306636571884155, 0.03441016376018524, 0.09321954101324081, -0.18872986733913422], [0.35593295097351074, 0.32507577538490295, -0.26061075925827026, -0.3857057988643646, -0.28621718287467957, -0.10515919327735901, 0.051738690584897995, 0.04473750293254852, -0.20891977846622467, -0.11262384802103043, -0.09642388671636581, -0.11862687021493912, -0.11711369454860687, 0.05062416195869446, 0.27894192934036255, -0.09733358025550842, -0.4108564555644989, 0.035097960382699966, -0.16731777787208557, -0.1963004618883133, -0.2614090144634247, -0.1255476176738739, 0.008729356341063976, 0.002564326860010624, 0.3256082534790039, 0.18983034789562225, 0.24113844335079193, -0.04379826784133911, -0.12367493659257889, 0.3320172429084778, 0.03893565386533737, -0.08104708045721054], [-0.17831215262413025, -0.15370509028434753, -0.08630818128585815, -0.05726831033825874, 0.1914617121219635, -0.09847166389226913, 0.12129731476306915, 0.16347865760326385, 0.09026609361171722, 0.20451420545578003, 0.019748864695429802, 0.13372398912906647, -0.12694032490253448, 0.14281940460205078, -0.20863136649131775, -0.07533616572618484, -0.06635099649429321, 0.10093306750059128, -0.11371950805187225, -0.003384688403457403, 0.1137610524892807, -0.03851227089762688, -0.03747271001338959, -0.48369401693344116, -0.6947757005691528, -0.18168918788433075, -0.12357348203659058, 0.046434175223112106, 0.5480142831802368, -0.1240154355764389, 0.013835156336426735, 0.11591241508722305], [-0.6020041704177856, 0.5916978120803833, 0.02767181023955345, 0.0957459807395935, 0.12372025847434998, -0.07384390383958817, 0.26785358786582947, 0.1658700555562973, -0.0081051429733634, 0.20524868369102478, 0.08875233680009842, -0.18149998784065247, 0.031518980860710144, 0.007356816902756691, 0.14138345420360565, -0.2074030637741089, -0.35777515172958374, -0.1175876334309578, -0.04900611937046051, 0.021379971876740456, -0.11619485914707184, 0.02071494422852993, -0.06961528956890106, -0.01788053661584854, 0.17140421271324158, -0.7852717638015747, 0.07135020196437836, 0.02046279050409794, -0.14885488152503967, -0.034237660467624664, -0.24899983406066895, -0.4061030149459839], [0.0022101651411503553, -0.48805466294288635, 0.07284698635339737, 0.2920351028442383, 0.27657386660575867, -0.2132406383752823, -0.055596042424440384, 0.05085529014468193, 0.25956442952156067, 0.03621231019496918, 0.06493142992258072, 0.05496908351778984, 0.6383569240570068, 0.24223928153514862, -0.22284375131130219, 0.003760715713724494, 0.36600813269615173, 0.19039204716682434, -0.05184709280729294, -0.4832419455051422, 0.14392124116420746, 0.30837807059288025, -0.05698262155056, -0.25098058581352234, -0.7174318432807922, -0.2797664999961853, 0.0015462618321180344, -0.002976043149828911, 0.02468707412481308, -0.09819485247135162, -0.14520402252674103, 0.1686953455209732], [-0.4274834394454956, -0.0006532691768370569, 0.10073774307966232, 0.13885563611984253, -0.10588603466749191, 0.07129737734794617, -0.2642369568347931, -0.07212691009044647, -0.018634675070643425, -0.1506194919347763, 0.15961645543575287, 0.09178163856267929, 0.04042869806289673, -0.1350909173488617, -0.28446733951568604, -0.017943568527698517, -0.28192174434661865, -0.17182554304599762, -0.42177513241767883, -0.5037813782691956, 0.05736392363905907, 0.1406613439321518, -0.09448787569999695, -0.2214355170726776, -0.4493546187877655, -0.3355146050453186, 0.13887159526348114, 0.09874404966831207, -0.06714508682489395, 0.004224890377372503, -0.09689254313707352, 0.13791108131408691], [-0.2942245602607727, -0.14828835427761078, -0.10357744246721268, 0.047247279435396194, -0.3664759397506714, -0.25526607036590576, -0.002598598599433899, 0.010120900347828865, -0.2203698754310608, -0.2956305742263794, -0.1524306684732437, 0.2906598448753357, -0.24517212808132172, 0.01220910344272852, -0.23038899898529053, -0.1897650957107544, 0.22945092618465424, -0.27741944789886475, -0.24941840767860413, -0.3652716875076294, 0.07593752443790436, 0.33930128812789917, -0.06702537089586258, -0.12932634353637695, -0.3053247630596161, -0.43871641159057617, 0.03412525728344917, 0.3610834777355194, 0.019563354551792145, -0.0778302475810051, -0.19657213985919952, 0.2387656420469284], [0.026708245277404785, 0.394031286239624, 0.22616839408874512, 0.0656275749206543, 0.2400265634059906, 0.07071401923894882, 0.01973220705986023, -0.1866263896226883, 0.06822612136602402, 0.20495213568210602, 0.10653056204319, 0.13583165407180786, 0.24319258332252502, -0.021094372496008873, 0.40751174092292786, -0.22399848699569702, 0.3200150430202484, -0.29118621349334717, 0.0914507582783699, -0.04017569124698639, 0.28123214840888977, 0.3356243968009949, 0.24708782136440277, 0.3238717019557953, 0.13011354207992554, -0.34690558910369873, -0.2266659438610077, -0.2336014062166214, -0.15209747850894928, -0.2558130621910095, 0.05189533531665802, 0.32033973932266235], [-0.5241702198982239, 0.1291419267654419, 0.18823498487472534, -0.23816226422786713, 0.17149220407009125, 0.14761273562908173, 0.006307521834969521, -0.1281767338514328, -0.29746586084365845, 0.021421456709504128, -0.1315879374742508, -0.2148401141166687, -0.39404168725013733, -0.09398418664932251, -0.11553476750850677, -0.292114794254303, -0.08227845281362534, -0.0936833918094635, -0.07194077223539352, -0.08199003338813782, -0.09768808633089066, -0.10244488716125488, 0.005498967133462429, -0.14099819958209991, -0.10482358932495117, -0.6099858283996582, -0.13864237070083618, -0.011154880747199059, -0.0269035492092371, -0.14891836047172546, -0.12151793390512466, -0.1031690314412117], [-0.2310055047273636, -0.4612736999988556, 0.18573026359081268, -0.07826460152864456, 0.04716873541474342, 0.24767570197582245, -0.03918992727994919, 0.08318088203668594, -0.32098889350891113, -0.3134379982948303, 0.10402392596006393, -0.2845321297645569, 0.10202018916606903, -0.5580400824546814, -0.16303658485412598, -0.22654850780963898, -0.2763507664203644, 0.21592941880226135, -0.11624207347631454, -0.07983728498220444, 0.16719001531600952, -0.2504602074623108, 0.18846997618675232, 0.08795397728681564, -0.289515882730484, -0.2918925881385803, 0.18742138147354126, 0.059095509350299835, 0.041021306067705154, -0.12876582145690918, -0.5631532669067383, -0.5725804567337036], [-0.15943223237991333, -0.05230896547436714, -0.04975586012005806, -0.16498082876205444, -0.13103143870830536, 0.24893590807914734, 0.36495181918144226, 0.2405240535736084, 0.15573151409626007, 0.10215683281421661, -0.27285367250442505, 0.03839566186070442, 0.17208035290241241, -0.0610833540558815, -0.30213287472724915, 0.037590377032756805, 0.03136615455150604, 0.27899980545043945, -0.046386733651161194, -0.26276692748069763, 0.1326424926519394, 0.1523875594139099, -0.28813111782073975, -0.08617300540208817, -0.29768118262290955, -0.32509973645210266, 0.3282870650291443, 0.11547096073627472, 0.16735780239105225, 0.1451762616634369, 0.10817740112543106, 0.21304623782634735], [-0.28593307733535767, -0.03244806453585625, -0.40079736709594727, -0.06581911444664001, -0.06673218309879303, 0.0005027881124988198, 0.1331687569618225, -0.14405448734760284, 0.034659743309020996, 0.026607990264892578, -0.0693868026137352, 0.1579597294330597, 0.12542250752449036, 0.10617846995592117, 0.2602374851703644, 0.5724603533744812, 0.043108150362968445, 0.6693639755249023, 0.31813010573387146, -0.02638506330549717, 0.07004433870315552, 0.2735351324081421, -0.13099795579910278, -0.16950161755084991, -0.3124106824398041, -0.12208112329244614, 0.03760115057229996, 0.15695925056934357, 0.045710790902376175, 0.10199102759361267, -0.3119516372680664, -0.3271777927875519], [-0.18336617946624756, -0.12238685041666031, -0.19168342649936676, 0.3085656762123108, 0.2982364296913147, -0.2654927968978882, -0.06487251073122025, -0.17503046989440918, -0.04834938049316406, -0.019186299294233322, -0.0404345877468586, 0.05628340691328049, 0.4553907811641693, 0.2697848081588745, 0.07268010079860687, 0.07549525797367096, -0.0018451691139489412, 0.2993623614311218, -0.1953744888305664, -0.4690597951412201, 0.21400433778762817, 0.14851629734039307, 0.04103957489132881, 0.03368287533521652, -0.5373928546905518, -0.14917220175266266, 0.08422914147377014, 0.10584844648838043, -0.0858469232916832, -0.11196494847536087, -0.116457998752594, -0.11381655186414719], [-0.2958327829837799, -0.23165763914585114, 0.3217753767967224, 0.16628029942512512, -0.29912203550338745, 0.2458541989326477, -0.03563881665468216, 0.036067135632038116, -0.15439444780349731, -0.20171186327934265, -0.18141914904117584, 0.10114312916994095, -0.20884960889816284, 0.08089546859264374, -0.49332669377326965, 0.022465381771326065, 0.09877008944749832, -0.27781254053115845, -0.16701754927635193, -0.27374836802482605, 0.30250778794288635, 0.23485513031482697, -0.24839900434017181, 0.08884876221418381, -0.2718735635280609, -0.3374067544937134, 0.2759294807910919, 0.3307863473892212, -0.061912380158901215, -0.20042890310287476, -0.11904340237379074, -0.00719429412856698], [-0.0789329782128334, 0.019482329487800598, 0.43994349241256714, 0.1767238974571228, 0.2567801773548126, 0.08179505169391632, 0.09991969913244247, 0.2838459312915802, 0.30999308824539185, 0.021290449425578117, -0.07424215227365494, -0.06782882660627365, -0.13918976485729218, 0.16078577935695648, 0.1128508523106575, -0.11319044232368469, -0.18990890681743622, -0.048134081065654755, 0.2554307281970978, -0.11113086342811584, -0.1121588945388794, 0.0974450334906578, -0.12165667861700058, -0.18793053925037384, -0.573862612247467, -0.2508825659751892, -0.34085938334465027, 0.26841652393341064, 0.3502708971500397, -0.0938640758395195, -0.379849910736084, -0.1641901284456253]], "b": [-0.2620319724082947, -0.27356722950935364, -0.12224873155355453, 0.002392804017290473, -0.2359718382358551, -0.1409720480442047, 0.2578028738498688, -0.4101910889148712, -0.32473504543304443, -0.399859219789505, -0.4976693093776703, -0.27085211873054504, -0.031256500631570816, -0.35302451252937317, -0.21392886340618134, -0.2052621692419052, -0.40321892499923706, -0.4996547996997833, 0.15097936987876892, -0.09281362593173981, -0.22084912657737732, -0.5013800859451294, -0.16736233234405518, -0.2926148474216461, -0.35852137207984924, -0.06379044055938721, -0.12425931543111801, -0.06860986351966858, -0.3557623326778412, -0.15739098191261292, -0.36379191279411316, -0.06868218630552292, -0.1385273039340973, 0.1385454386472702, 0.16291441023349762, -0.19546984136104584, 0.0012279541697353125, -0.32377684116363525, 0.05941144749522209, -0.19122770428657532, -0.38557639718055725, -0.13053175806999207, -0.12346363812685013, -0.21494035422801971, -0.5131558179855347, 0.3252679407596588, -0.02487908862531185, -0.207430899143219, 0.43664246797561646, 0.16003790497779846, 0.2797238826751709, -0.12257790565490723, -0.3615376949310303, -0.32139283418655396, -0.37387049198150635, -0.13697202503681183, -0.26434326171875, -0.45500266551971436, -0.21312151849269867, -0.13596905767917633, -0.21111145615577698, -0.16482144594192505, -0.4202045500278473, -0.46489840745925903]}, {"w": [[-0.15134502947330475, 0.11269877851009369, 0.17357312142848969, -0.29236122965812683, -0.014165992848575115, 0.24929791688919067, -0.5352848172187805, 0.3112620413303375, 0.324146568775177, 0.5129325985908508, 0.09254288673400879, 0.04569452628493309, 0.04479505494236946, 0.03003830835223198, 0.1944013237953186, -0.026795612648129463, -0.019800929352641106, 0.22978129982948303, -0.5234879851341248, 0.12599977850914001, -0.07908139377832413, 0.07678667455911636, 0.07214103639125824, -0.399569571018219, 0.28023460507392883, -0.36942121386528015, 0.22435151040554047, 0.05819859355688095, 0.3166100084781647, -0.45165735483169556, 0.2616279721260071, 0.16481755673885345, -0.11597679555416107, -0.5424938797950745, 0.2611638605594635, 0.09477590769529343, -0.6384868621826172, 0.12876538932323456, -0.4754861295223236, -0.28483110666275024, -0.018715597689151764, 0.3308010995388031, -0.29272082448005676, 0.0036865214351564646, 0.050284493714571, -0.34202566742897034, 0.09983284771442413, -0.20608295500278473, -0.8057965636253357, 0.09425974637269974, -0.11791554093360901, -0.07157500088214874, -0.03787284344434738, -0.21950344741344452, 0.13772183656692505, -0.12655632197856903, 0.1189260259270668, 0.1098104938864708, 0.18080848455429077, -0.0726548507809639, 0.21870853006839752, 0.13124850392341614, -0.07770026475191116, 0.05717693269252777], [0.03877114877104759, -0.10386336594820023, -0.16358406841754913, 0.1571967899799347, -0.09780636429786682, -0.3037034273147583, 0.3016594648361206, -0.7198504209518433, -0.1828574240207672, -0.5293586254119873, 0.08613276481628418, 0.29089635610580444, 0.2754432260990143, -0.10591313242912292, -0.18995904922485352, 0.1277567744255066, -0.02929181419312954, 0.031052328646183014, -0.1111568808555603, 0.5231964588165283, -0.3094853460788727, -0.2787505090236664, -0.26016882061958313, 0.1920478343963623, -0.2706611156463623, -0.17190352082252502, -0.3053772449493408, 0.32177528738975525, -0.02830243855714798, 0.0591239407658577, -0.22778436541557312, 0.18596294522285461, 0.2575617730617523, 0.37547579407691956, -0.11730342358350754, -0.15576443076133728, 0.0892944261431694, -0.2502765953540802, 0.1411362737417221, 0.3947860598564148, -0.08789942413568497, 0.17626117169857025, 0.10849648714065552, 0.00687713548541069, -0.4263593852519989, 0.3402842581272125, 0.035784389823675156, -0.13046491146087646, 0.19579395651817322, 0.16703496873378754, 0.21597571671009064, 0.05321627855300903, 0.12073870003223419, -0.953929603099823, -0.19193807244300842, -0.012022930197417736, -0.13958339393138885, -0.03249647095799446, -0.06731471419334412, -0.13567598164081573, -0.21267394721508026, -0.2253323197364807, -0.12062095105648041, -0.08190124481916428], [-0.0867287665605545, -0.10866355150938034, 0.08185066282749176, 0.48266199231147766, -0.1612016260623932, -0.1853008270263672, 0.0616060271859169, -0.08924989402294159, -0.2431488037109375, -0.17732255160808563, -0.05837659537792206, 0.20301519334316254, 0.0012111836113035679, -0.07792000472545624, 0.0936843752861023, -0.24286945164203644, -0.09285521507263184, -0.1803739070892334, -0.16680480539798737, -0.008885609917342663, -0.3059045374393463, -0.15645617246627808, -0.2559073865413666, 0.05031174421310425, -0.24229960143566132, -0.006636385340243578, -0.25971367955207825, 0.1030883640050888, 0.036373503506183624, 0.21884335577487946, -0.25827285647392273, -0.28914740681648254, 0.24612827599048615, 0.3270445466041565, -0.2402833253145218, -0.3160620331764221, 0.07555040717124939, -0.07758251577615738, 0.14665108919143677, 0.37167757749557495, -0.2952699065208435, 0.10804103314876556, 0.09499959647655487, 0.07648823410272598, -0.28595903515815735, 0.08780032396316528, -0.0694974735379219, -0.006492632441222668, 0.38444483280181885, 0.24849019944667816, 0.13252773880958557, 0.021886233240365982, 0.08687153458595276, -0.1075323224067688, -0.15723547339439392, -0.012530574575066566, -0.28275755047798157, -0.1948898434638977, -0.052679769694805145, 0.04156460613012314, 0.1533685326576233, -0.1712329238653183, -0.018809648230671883, 0.10743662714958191], [0.1147482618689537, 0.24736617505550385, 0.09186768531799316, -0.12935791909694672, 0.299040824174881, 0.2192794680595398, -0.3933843672275543, 0.15061478316783905, 0.3375842273235321, 0.602077066898346, 0.118743896484375, 0.02187654934823513, 0.18443886935710907, 0.29431918263435364, 0.16217949986457825, 0.1355966031551361, 0.36627429723739624, 0.07291285693645477, 0.09639335423707962, -0.041895292699337006, 0.10945159941911697, 0.21962970495224, 0.26666051149368286, -0.318573921918869, 0.1432035267353058, 0.17335298657417297, 0.38652655482292175, 0.0984448492527008, 0.2416239231824875, -0.09960292279720306, 0.37321773171424866, 0.03400275856256485, 0.17687265574932098, 0.12080859392881393, 0.4311038553714752, 0.3839799165725708, -0.670017659664154, 0.13122646510601044, 0.038762759417295456, -0.29910847544670105, 0.17628014087677002, 0.1619177609682083, 0.17731553316116333, 0.300366073846817, 0.11609399318695068, -0.01461801677942276, 0.15228290855884552, 0.17742687463760376, 0.06538955122232437, 0.20056851208209991, -0.02267482317984104, 0.1310916244983673, 0.21640349924564362, 0.21544049680233002, 0.17980627715587616, 0.15876474976539612, 0.039522815495729446, 0.28510376811027527, 0.17043328285217285, 0.1730024516582489, 0.24246124923229218, 0.15695621073246002, 0.09240538626909256, 0.1512969732284546], [0.004038957413285971, 0.06476625055074692, 0.20038986206054688, -0.1299980878829956, 0.2254142314195633, 0.2531018555164337, -0.4563092589378357, 0.3700827360153198, 0.21673066914081573, 0.4306660294532776, 0.16173528134822845, -0.0008660004241392016, -0.060272250324487686, 0.3063071668148041, 0.1891181915998459, 0.1755460500717163, 0.17053213715553284, 0.14808030426502228, -0.2494339793920517, -0.17451058328151703, 0.008642571978271008, 0.21646976470947266, 0.12982206046581268, -0.4217042326927185, 0.2511257529258728, -0.07549470663070679, 0.3559372127056122, -0.07223198562860489, 0.27830618619918823, -0.33172181248664856, 0.12857168912887573, 0.16239511966705322, 0.04087052121758461, -0.2937139868736267, 0.3659137785434723, 0.23427976667881012, -0.8259487748146057, 0.21261392533779144, -0.12516345083713531, -0.2789524793624878, 0.23125740885734558, 0.06179586425423622, 0.049577049911022186, 0.08599244803190231, 0.1830451488494873, -0.08752511441707611, 0.19296415150165558, 0.16588908433914185, -0.10832072049379349, -0.13714905083179474, -0.1627427339553833, -0.04812377691268921, 0.12219400703907013, 0.25348129868507385, 0.07391698658466339, 0.06629056483507156, 0.2257193773984909, 0.320096880197525, 0.11384929716587067, 0.07697656750679016, 0.18805213272571564, 0.27881237864494324, 0.1259501725435257, 0.01544233225286007], [-0.25170987844467163, -0.08891651779413223, -0.062466610223054886, 0.2796458601951599, -0.10271647572517395, 0.2656579911708832, -0.07868092507123947, 0.0023127165623009205, 0.4108566343784332, 0.41007986664772034, 0.2613554000854492, -0.05946860834956169, -0.5597957968711853, 0.018899237737059593, -0.06937699019908905, 0.14429208636283875, -0.2055107206106186, -0.19450689852237701, -0.3365758955478668, -0.5057412385940552, -0.20527300238609314, 0.21970991790294647, 0.1366482824087143, -0.19104427099227905, 0.05091371387243271, -0.3640097379684448, -0.2968157231807709, 0.09546857327222824, -0.0008937433594837785, 0.08385264873504639, -0.19677142798900604, -0.6203560829162598, 0.27963748574256897, 0.351940393447876, 0.33716505765914917, -0.03325410187244415, 0.10209494084119797, 0.08774474263191223, -0.34652435779571533, -0.09843804687261581, -0.1788267344236374, 0.419700026512146, 0.010983188636600971, 0.07548023015260696, -0.09441298991441727, 0.013095615431666374, -0.2096266895532608, -0.30491524934768677, 0.29433003067970276, 0.23657271265983582, 0.06312981992959976, -0.10671446472406387, 0.06815214455127716, 0.005098195746541023, -0.16511118412017822, -0.026522327214479446, 0.06349088996648788, -0.5038071274757385, 0.0011587387416511774, 0.5741736888885498, 0.1271655410528183, -0.05660092830657959, 0.27297767996788025, 0.24507591128349304], [0.07165370136499405, 0.21054138243198395, 0.12235645949840546, 0.02137971855700016, 0.26720404624938965, 0.16786107420921326, -0.3731938898563385, 0.29983460903167725, 0.2478204071521759, 0.6962488293647766, 0.11954385042190552, 0.22709542512893677, 0.16229265928268433, 0.19495870172977448, 0.17081786692142487, 0.03419434279203415, 0.22881942987442017, 0.14083120226860046, -0.05501401051878929, -0.18143129348754883, 0.29338210821151733, 0.24192605912685394, 0.15005189180374146, -0.15144065022468567, 0.1734202653169632, 0.19824214279651642, 0.31413641571998596, 0.19093942642211914, 0.3854888677597046, -0.304483562707901, 0.3689867854118347, 0.11950458586215973, 0.002059899503365159, -0.15854933857917786, 0.20388513803482056, 0.2938545346260071, -0.6642651557922363, 0.025122229009866714, -0.09404633939266205, -0.41763240098953247, 0.25006991624832153, 0.26269450783729553, 0.022939976304769516, 0.3591897785663605, 0.10035010427236557, -0.03691732510924339, 0.22676052153110504, 0.19743528962135315, -0.09971332550048828, 0.16169150173664093, 0.10807716846466064, -0.022206192836165428, 0.1343899965286255, 0.23541423678398132, 0.07889574766159058, 0.20361927151679993, 0.16378828883171082, 0.3104589283466339, 0.16600240767002106, 0.08561645448207855, 0.3181496560573578, 0.07226111739873886, 0.07861125469207764, 0.08175196498632431], [0.09378203749656677, -0.030638201162219048, 0.11108812689781189, -0.04330240935087204, 0.17069311439990997, 0.16536733508110046, -0.31025415658950806, 0.26379862427711487, 0.3759755790233612, 0.34148070216178894, 0.06540119647979736, -0.021431032568216324, 0.03340704366564751, 0.06311747431755066, 0.2441079467535019, -0.11431881040334702, 0.04284894838929176, 0.1707030087709427, -0.4798095226287842, -0.24747128784656525, 0.06766381114721298, 0.24856604635715485, -0.09251950681209564, -0.33496662974357605, 0.1051659882068634, 0.030654890462756157, 0.2010500133037567, -0.006024068687111139, 0.2749316394329071, -0.4206799268722534, 0.21281129121780396, -0.024642065167427063, -0.3632649779319763, -0.6308756470680237, 0.15465593338012695, 0.4208296239376068, -0.45871052145957947, 0.15681549906730652, -0.5051701068878174, -0.2582457959651947, 0.3453502953052521, 0.031115569174289703, -0.12369110435247421, 0.13053619861602783, 0.16897700726985931, -0.3435054123401642, -0.03475084900856018, -0.13592852652072906, -0.44056436419487, -0.06198860704898834, -0.03555833920836449, -0.03350062295794487, 0.20812195539474487, 0.04231370612978935, 0.08420288562774658, -0.1424645036458969, 0.2377985566854477, 0.09345709532499313, 0.17533907294273376, 0.1048998013138771, 0.2523355185985565, 0.027422770857810974, 0.023411612957715988, 0.0019378985743969679], [-0.07113052159547806, 0.21136794984340668, 0.1912362426519394, -0.4413584768772125, 0.011666710488498211, 0.23045848309993744, -0.2898891866207123, 0.4650932550430298, 0.28487536311149597, 0.19424954056739807, 0.19640810787677765, 0.06086369603872299, 0.04217782989144325, 0.15413859486579895, 0.18824520707130432, 0.26147401332855225, -0.02346029132604599, 0.11773890256881714, -0.41698455810546875, -0.11761125177145004, -0.08709921687841415, 0.24094577133655548, -0.10197366774082184, -0.5017638206481934, 0.23910222947597504, -0.08065122365951538, 0.18087424337863922, 0.004029057454317808, 0.37763312458992004, -0.31597083806991577, 0.2719022333621979, 0.09266512095928192, -0.29181969165802, -0.6726105809211731, 0.31989115476608276, 0.35486435890197754, -0.5973353385925293, 0.20464098453521729, -0.6327704787254333, -0.3504542112350464, 0.25238850712776184, 0.2030360996723175, -0.01961282268166542, 0.27119460701942444, 0.2436210662126541, -0.48518693447113037, 0.0582243949174881, 0.03335940092802048, -0.4471186697483063, -0.01353265531361103, 0.0847596526145935, -0.0013086240505799651, -0.01711135357618332, -0.11051610857248306, 0.022263934835791588, 0.015688253566622734, 0.28059861063957214, 0.13320580124855042, 0.18299807608127594, -0.028163911774754524, 0.3690219223499298, 0.09517253935337067, 0.06488782912492752, -0.004383013118058443], [0.13655459880828857, 0.04252159595489502, 0.14324741065502167, 0.07379283756017685, 0.32520371675491333, 0.2040288746356964, -0.00037905521458014846, 0.2597780227661133, 0.3409614562988281, 0.6322826147079468, 0.2516014873981476, 0.248297318816185, 0.22059258818626404, 0.1443200260400772, 0.281853586435318, 0.14968261122703552, 0.33882591128349304, 0.17191781103610992, -0.1886058896780014, 0.03758739307522774, 0.20840784907341003, 0.3575625419616699, 0.06283770501613617, 0.02527151256799698, 0.3085687458515167, 0.21715520322322845, 0.1647697240114212, 0.1799682080745697, 0.3861951529979706, 0.05799872428178787, 0.27262458205223083, 0.05354562774300575, 0.011923609301447868, -0.1268833428621292, 0.27642709016799927, 0.6636820435523987, 0.1429675817489624, 0.15877239406108856, -0.03636736422777176, -0.1966615617275238, 0.5092949867248535, 0.3236962556838989, -0.03972628340125084, 0.37469056248664856, 0.10449771583080292, -0.00697540445253253, 0.29867663979530334, 0.331390917301178, -0.020242739468812943, 0.1463363617658615, 0.29650574922561646, 0.08840803802013397, 0.21181270480155945, 0.12707693874835968, 0.20116207003593445, 0.0923757553100586, 0.11674250662326813, 0.33420369029045105, 0.21261735260486603, 0.042602017521858215, 0.2691861689090729, 0.24683073163032532, 0.10808999836444855, 0.023814450949430466], [-0.06698831170797348, -0.08158816397190094, -0.5851433873176575, 0.15054427087306976, -0.12152804434299469, -0.10796954482793808, -0.2618096172809601, 0.032142821699380875, -0.36472275853157043, -0.47624439001083374, -0.39527633786201477, 0.010582897812128067, 0.23109771311283112, -0.09440106898546219, 0.1467633843421936, -0.08305621147155762, -0.07035191357135773, 0.13294874131679535, 0.10507231205701828, 0.25999027490615845, 0.04973935708403587, -0.030308514833450317, 0.012664011679589748, 0.014975843019783497, -0.16483822464942932, 0.06987569481134415, -0.08796696364879608, 0.053137246519327164, 0.03086526319384575, 0.24192388355731964, -0.07388493418693542, 0.013108194805681705, 0.025412542745471, 0.2209445685148239, -0.3128262758255005, 0.12538711726665497, -0.3225747346878052, -0.023878606036305428, 0.005281645338982344, 0.1624947488307953, -0.23591409623622894, -0.0853041335940361, 0.06923618912696838, 0.16889533400535583, -0.10445713251829147, -0.07433618605136871, 0.06291283667087555, 0.055991947650909424, 0.12032079696655273, 0.31631994247436523, -0.21401509642601013, 0.0718219131231308, 0.2521747052669525, 0.006338554434478283, 0.1485811322927475, -0.24901393055915833, 0.026020796969532967, 0.09882193058729172, 0.08253291249275208, -0.2648935616016388, -0.3342396020889282, 0.16583435237407684, -0.30765455961227417, 0.16702312231063843], [0.003240020480006933, 0.14297828078269958, -0.07888015359640121, 0.14793512225151062, 0.10969240963459015, -0.49930867552757263, -0.10231044143438339, -0.43783825635910034, 0.0274383332580328, -0.29832908511161804, -0.0601312480866909, 0.04453527554869652, 0.3251955807209015, -0.04134516045451164, -0.10621040314435959, 0.28947633504867554, -0.10161055624485016, -0.15999293327331543, -0.07163581252098083, 0.4329773485660553, 0.060416094958782196, -0.3594478964805603, -0.14358049631118774, 0.46421951055526733, -0.18212075531482697, 0.310548335313797, 0.08374569565057755, 0.14321674406528473, -0.09071552008390427, 0.12707175314426422, -0.14226721227169037, -0.2840587794780731, 0.6241014003753662, -0.07828182727098465, 0.031178249046206474, -0.25060221552848816, -0.5142807960510254, 0.1820881962776184, 0.049023307859897614, 0.25963979959487915, 0.1811065375804901, -0.2137216478586197, -0.0005944981821812689, -0.011231279000639915, -0.18462276458740234, -0.0930127426981926, 0.08914265781641006, 0.44622603058815, 0.0556531585752964, 0.029681766405701637, -0.06844624876976013, -0.07757016271352768, -0.029063088819384575, -0.1656888723373413, 0.024402979761362076, 0.2502111494541168, -0.46436041593551636, -0.006862812675535679, 0.037525393068790436, -0.04524776339530945, -0.14119979739189148, 0.21052110195159912, 0.1343606859445572, 0.2620166540145874], [0.09338445961475372, -0.4065093696117401, 0.09168536216020584, -0.027409696951508522, 0.1936945617198944, -0.13472676277160645, -0.04748419672250748, 0.046956952661275864, -0.05797000229358673, -0.23301084339618683, -0.3804330825805664, -0.29207611083984375, -0.1789645552635193, 0.015376092866063118, -0.34335845708847046, -0.0786237120628357, -0.4493354260921478, 0.208701029419899, 0.29605939984321594, 0.09827297180891037, 0.040451254695653915, -0.2570279538631439, -0.03298111632466316, 0.3491467535495758, -0.045318156480789185, 0.41545814275741577, 0.18381448090076447, -0.018167834728956223, -0.17488330602645874, 0.08098643273115158, -0.19513210654258728, -0.374843567609787, 0.01495385356247425, 0.05204911157488823, -0.09598169475793839, -0.17024780809879303, -0.6195577383041382, 0.013221667148172855, -0.011331846006214619, 0.05787220224738121, -0.14386163651943207, -0.0960569754242897, -0.050901200622320175, -0.30029821395874023, -0.10480751842260361, 0.04143143817782402, -0.13142019510269165, 0.17652741074562073, -0.1058216243982315, 0.03242354840040207, -0.35712021589279175, 0.004925251007080078, -0.018992256373167038, 0.4616195261478424, 0.0790991559624672, -0.09410873055458069, -0.5321193933486938, -0.17715902626514435, -0.06035229563713074, -0.10498539358377457, 0.26659640669822693, 0.06564967334270477, 0.0032170333433896303, 0.22174039483070374], [0.08104588836431503, 0.21436582505702972, 0.1842219978570938, 0.049434445798397064, 0.20263148844242096, 0.27886641025543213, 0.11182491481304169, 0.3205001652240753, 0.2802388370037079, 0.7077468037605286, 0.1864248365163803, 0.28702589869499207, 0.06621640920639038, 0.3203626573085785, 0.19695094227790833, 0.14956143498420715, 0.43715348839759827, 0.08347880840301514, 0.10781683772802353, -0.006511906627565622, 0.12283667176961899, 0.4070724546909332, 0.22746019065380096, -0.07698879390954971, 0.16573740541934967, 0.09153565019369125, 0.2987496554851532, 0.10378030687570572, 0.30374759435653687, 0.018674740567803383, 0.3493223786354065, 0.17025814950466156, -0.026242906227707863, 0.10599614679813385, 0.44831758737564087, 0.5773346424102783, -0.011057056486606598, 0.1660919338464737, 0.03598778322339058, -0.20875145494937897, 0.45133161544799805, 0.22525791823863983, 0.05124541372060776, 0.3436630666255951, 0.2529623210430145, 0.06943530589342117, 0.21343420445919037, 0.21520988643169403, 0.04794393107295036, 0.1778327375650406, 0.17266015708446503, 0.03663799539208412, 0.0679616630077362, 0.20103669166564941, 0.1494978368282318, 0.20228050649166107, 0.24154409766197205, 0.26194196939468384, 0.3532923758029938, 0.1129114106297493, 0.17426808178424835, 0.15954041481018066, 0.2425343245267868, 0.030850423499941826], [0.07105850428342819, 0.146222323179245, 0.2792893946170807, 0.05125780776143074, 0.18963594734668732, 0.4475155472755432, -0.3808273375034332, 0.2177685648202896, 0.1057935357093811, 0.33580756187438965, 0.17471027374267578, -0.12202746421098709, 0.086170494556427, 0.15440717339515686, 0.17089438438415527, 0.12213169038295746, 0.1877596080303192, 0.02703884057700634, -0.27139294147491455, -0.26121917366981506, 0.03559839352965355, 0.35434970259666443, 0.13417093455791473, -0.3988672196865082, 0.12472359091043472, -0.16688810288906097, 0.4225213825702667, -0.024565720930695534, 0.2599170506000519, -0.24322409927845, 0.21537651121616364, 0.04873799905180931, -0.17709818482398987, -0.20747636258602142, 0.23412999510765076, 0.2657361924648285, -0.5419612526893616, 0.2568024694919586, -0.13955757021903992, -0.39536380767822266, 0.18281149864196777, -0.012088018469512463, -0.08702220022678375, 0.08761952817440033, 0.31913813948631287, -0.270852267742157, -0.11044511198997498, 0.09322034567594528, 0.17066892981529236, 0.059588052332401276, -0.14935560524463654, -0.07195848971605301, 0.11075436323881149, 0.3001658618450165, 0.12801510095596313, 0.14203648269176483, 0.2083190381526947, 0.08667773753404617, 0.1982146054506302, 0.02186368592083454, 0.05446954071521759, 0.16551874577999115, 0.02360721491277218, 0.02960551530122757], [0.07688573747873306, 0.2571255564689636, 0.09911763668060303, 0.20786580443382263, 0.21180002391338348, 0.2710700035095215, -0.028516938909888268, 0.21116483211517334, 0.44155368208885193, 0.4810769557952881, 0.2219938039779663, 0.1223669946193695, 0.15596167743206024, 0.2837798595428467, 0.24191159009933472, 0.26140692830085754, 0.3847365379333496, 0.2179364711046219, 0.06268879026174545, 0.1153005063533783, 0.2401413470506668, 0.34788957238197327, 0.2658863365650177, -0.02073921635746956, 0.30451536178588867, -0.0017964029684662819, 0.1848137527704239, 0.2235497087240219, 0.28841039538383484, 0.07208225876092911, 0.29952603578567505, 0.09252631664276123, 0.005925205070525408, 0.15652251243591309, 0.32601243257522583, 0.5971618294715881, 0.2931959629058838, 0.08650423586368561, 0.014002363197505474, -0.15845786035060883, 0.49873727560043335, 0.23721091449260712, -0.05033336579799652, 0.2261282503604889, 0.08957040309906006, 0.2572927474975586, 0.27327391505241394, 0.14942824840545654, 0.2515028417110443, 0.3073205053806305, 0.3426564335823059, 0.1421855241060257, 0.08216847479343414, 0.0937306359410286, 0.27749282121658325, 0.09452975541353226, 0.2300124317407608, 0.247188001871109, 0.35670050978660583, 0.02953529916703701, 0.2345895916223526, 0.17238809168338776, 0.0814163014292717, 0.12458169460296631], [0.09480637311935425, 0.27600154280662537, 0.08807770907878876, -0.2527306079864502, -0.035033829510211945, -0.24414511024951935, 0.04283133149147034, 0.015023896470665932, -0.1758384108543396, -0.17755557596683502, 0.2196650505065918, 0.11301343142986298, 0.026580316945910454, 0.068830206990242, 0.12089939415454865, 0.16707924008369446, -0.594486653804779, -0.06050516292452812, 0.25635966658592224, 0.3191511631011963, -0.05721339210867882, 0.1622687429189682, 0.02663547545671463, 0.09841897338628769, -0.2342970073223114, 0.3837130665779114, 0.3545360565185547, -0.09265277534723282, -0.2621515691280365, 0.2220321148633957, -0.10624703019857407, 0.013795525766909122, 0.1470509022474289, -0.08587364852428436, -0.6583014726638794, -0.17295430600643158, -0.3058890402317047, 0.12159756571054459, 0.24384698271751404, 0.14006757736206055, -0.2352953851222992, 0.341727077960968, 0.022482305765151978, -0.25910526514053345, -0.15712518990039825, -0.025864657014608383, 0.2595054507255554, 0.028796609491109848, 0.14465497434139252, 0.006180512253195047, 0.09417035430669785, 0.14328618347644806, 0.020442694425582886, -0.0634477362036705, 0.016182705760002136, -0.2141241729259491, -0.21164532005786896, 0.05931859463453293, -0.08612193912267685, -0.20857352018356323, 0.4179231822490692, 0.19734150171279907, -0.338910311460495, 0.2841537892818451], [0.21091793477535248, 0.1748281866312027, 0.16603869199752808, 0.035479575395584106, 0.21269410848617554, 0.3481275141239166, 0.013235040009021759, 0.33152616024017334, 0.18911299109458923, 0.5686185359954834, 0.19484756886959076, 0.1473626345396042, 0.20816192030906677, 0.2291853278875351, 0.19937853515148163, 0.2907313108444214, 0.3207227289676666, 0.12801508605480194, -0.08072829246520996, -0.11782214790582657, 0.32150447368621826, 0.3142351508140564, 0.2568550407886505, -0.14427044987678528, 0.3403559923171997, 0.1083843931555748, 0.27639850974082947, 0.007520534098148346, 0.23661157488822937, -0.01095131877809763, 0.13593348860740662, 0.15588565170764923, 0.062097348272800446, -0.12671959400177002, 0.2333267778158188, 0.6124392151832581, 0.09961959719657898, 0.1798461377620697, 0.04919850453734398, -0.25866132974624634, 0.4795357286930084, 0.13264751434326172, -0.05858839303255081, 0.3165796399116516, 0.1893390417098999, 0.11348780989646912, 0.30606940388679504, 0.2664666175842285, 0.2016865760087967, 0.3435516655445099, 0.3139044940471649, 0.017984896898269653, 0.23509004712104797, 0.26787567138671875, 0.22735461592674255, 0.17999742925167084, 0.2075999230146408, 0.35917234420776367, 0.37529706954956055, -0.004329628311097622, 0.2766079008579254, 0.26436716318130493, 0.1418372392654419, 0.0709584653377533], [-0.16280478239059448, -0.03131189942359924, 0.0038430863060057163, 0.11711381375789642, 0.07700824737548828, 0.42289668321609497, -0.07158336788415909, -0.203690305352211, -0.011056778952479362, -0.1652214080095291, -0.05500199645757675, -0.4330764412879944, -0.26651573181152344, 0.06997036933898926, 0.013266721740365028, 0.10196153074502945, 0.04101218283176422, 0.2809409499168396, 0.2226996123790741, -0.2081330567598343, -0.14847975969314575, -0.044388484209775925, -0.06650827080011368, 0.022433869540691376, 0.17890988290309906, -0.3709532916545868, -0.1326417773962021, 0.07938873022794724, 0.1943841576576233, 0.2911648154258728, -0.08142238855361938, 0.30710920691490173, -0.01823955401778221, 0.09816591441631317, 0.21163342893123627, 0.06462979316711426, -0.10453775525093079, 0.19345766305923462, 0.25747770071029663, 0.3103024363517761, 0.33619260787963867, 0.11050348728895187, 0.15517760813236237, 0.047673605382442474, 0.03309739753603935, 0.2556503117084503, -0.05257025361061096, 0.1338958591222763, 0.22256740927696228, 0.2634625732898712, 0.15288224816322327, -0.011140999384224415, 0.15472891926765442, -0.4160611927509308, -0.11048635840415955, -0.4187963306903839, 0.013253210112452507, -0.028665397316217422, 0.22725655138492584, -0.015276815742254257, 0.07507213950157166, -0.20931240916252136, -0.04896491765975952, 0.1257028430700302], [0.03290778398513794, 0.05475863814353943, 0.18636882305145264, -0.22552569210529327, 0.24570856988430023, 0.16140572726726532, -0.25938352942466736, 0.297567754983902, 0.32941433787345886, 0.3809206187725067, 0.17072340846061707, -0.034503255039453506, 0.13417479395866394, 0.10845419019460678, 0.17253568768501282, 0.04093015566468239, -0.1582159399986267, 0.26874634623527527, -0.7470088601112366, -0.13197454810142517, 0.1743977665901184, 0.1271052211523056, 0.15887396037578583, -0.12073991447687149, 0.15976586937904358, -0.039483699947595596, 0.31024181842803955, -0.027218462899327278, 0.14127230644226074, -0.6428661942481995, 0.3024892807006836, 0.11411760002374649, 0.02247917652130127, -0.4510057866573334, 0.22041505575180054, 0.14344923198223114, -0.3784421980381012, 0.20152856409549713, -0.8228898048400879, -0.44127553701400757, 0.28534477949142456, 0.2924979329109192, -0.2709866166114807, 0.25605762004852295, 0.18502113223075867, -0.23821154236793518, 0.2541157603263855, -0.12078104168176651, -0.4865276515483856, -0.143272265791893, -0.13890807330608368, -0.059620678424835205, -0.17972613871097565, 0.017315680161118507, 0.14366032183170319, -0.01891225576400757, -0.008191563189029694, 0.049793411046266556, 0.3038245141506195, -0.017290189862251282, 0.13945920765399933, 0.35232463479042053, 0.078610859811306, 0.06971412152051926], [0.02792366035282612, 0.11487406492233276, 0.026760919019579887, -0.01984688825905323, 0.21651218831539154, -0.3099230229854584, -0.28976431488990784, 0.3303050696849823, -0.2994344234466553, 0.06546434015035629, -0.34441614151000977, -0.628426194190979, -0.23896844685077667, -0.1198226660490036, 0.1351078301668167, 0.008089825510978699, 0.16271726787090302, 0.42178577184677124, -0.11544670164585114, -0.08561880141496658, 0.2586543560028076, 0.374267578125, 0.11065701395273209, -0.23840948939323425, 0.1627558469772339, -0.17257769405841827, 0.08323604613542557, -0.22628849744796753, 0.00118700519669801, 0.4107581079006195, 0.08742455393075943, 0.059942375868558884, -0.3684040307998657, 0.1279018074274063, -0.3318805694580078, 0.2295178323984146, -0.13734546303749084, 0.17290009558200836, 0.29704993963241577, 0.36540141701698303, 0.188118115067482, -0.3202836513519287, 0.3106965124607086, 0.13533076643943787, 0.1282242387533188, -0.25396493077278137, 0.017575141042470932, -0.11769666522741318, 0.1691654622554779, 0.1229795441031456, -0.3454063832759857, -0.18063296377658844, -0.043578144162893295, 0.18632692098617554, 0.20998615026474, -0.16978773474693298, 0.09253361821174622, 0.16008172929286957, 0.31124645471572876, -0.038041576743125916, -0.27580490708351135, 0.15588392317295074, -0.04813593998551369, 0.045664820820093155], [0.06208455190062523, 0.025053102523088455, 0.13005545735359192, -0.1434309035539627, 0.03617290034890175, 0.25942254066467285, -0.29845812916755676, 0.2005901038646698, 0.29177126288414, 0.40965166687965393, 0.0814845860004425, 0.004284088034182787, -0.13998042047023773, 0.20258241891860962, 0.18309172987937927, -0.10220073163509369, 0.02378196083009243, 0.18678781390190125, -0.5759435892105103, -0.16955819725990295, -0.019013671204447746, 0.23788894712924957, -0.08269334584474564, -0.35072821378707886, 0.2572791874408722, -0.125849649310112, 0.2724658250808716, -0.16579569876194, 0.24807335436344147, -0.4207584261894226, 0.14259807765483856, -0.0890355110168457, -0.27443498373031616, -0.34346675872802734, 0.1836567223072052, 0.19056499004364014, -0.5819334983825684, 0.13832403719425201, -0.7152214646339417, -0.2506435811519623, 0.3528682589530945, 0.1811225265264511, -0.3415791988372803, 0.24333155155181885, 0.1932094693183899, -0.3290887475013733, 0.03832222521305084, -0.066086046397686, -0.41719311475753784, 0.06778615713119507, -0.01248255930840969, -0.11371015012264252, 0.011024734936654568, -0.07737372070550919, -0.0043372586369514465, 0.05119013413786888, 0.13239353895187378, 0.11642781645059586, 0.32936668395996094, 0.028427952900528908, 0.29464828968048096, -0.010876835323870182, 0.003920884802937508, 0.12119568139314651], [-0.12478750944137573, 0.09775882214307785, -0.11948956549167633, 0.2248142659664154, -0.01061534509062767, -0.1197829470038414, 0.23144055902957916, -0.22715678811073303, -0.07933876663446426, 0.12207072228193283, 0.17572513222694397, 0.31244027614593506, 0.013825434260070324, -0.14841647446155548, -0.07621167600154877, 0.16999410092830658, 0.06959023326635361, 0.2012038677930832, -0.1436239331960678, 0.458427757024765, -0.22810138761997223, -0.02098657749593258, -0.43658626079559326, 0.31630656123161316, -0.15142439305782318, -0.20943565666675568, -0.2151278704404831, 0.24590690433979034, 0.16342800855636597, 0.0763792172074318, -0.23314210772514343, 0.10435304045677185, 0.04598752781748772, 0.4734610319137573, 0.00046056334394961596, -0.2021797150373459, 0.2484973520040512, -0.15949976444244385, 0.13478538393974304, 0.2501550614833832, 0.31096339225769043, 0.18123379349708557, 0.022071251645684242, -0.060401443392038345, -0.46093669533729553, 0.24422326683998108, -0.09230897575616837, -0.192601278424263, 0.19398130476474762, 0.32006216049194336, 0.21178321540355682, -0.2081425040960312, 0.17752999067306519, -0.38287585973739624, -0.11569996923208237, -0.04426111653447151, -0.09276171028614044, -0.06335683912038803, 0.21854771673679352, -0.16138556599617004, -0.14857636392116547, -0.14288343489170074, -0.30620232224464417, 0.11279253661632538], [-0.12265267968177795, -0.12217432260513306, 0.11237563192844391, 0.16191695630550385, -0.07326202094554901, -0.228834331035614, 0.1167297512292862, -0.34697645902633667, 0.09037131816148758, 0.14328618347644806, -0.0070454091764986515, 0.05233946070075035, -0.0008215941488742828, 0.01909385249018669, -0.569988489151001, 0.03871459513902664, -0.36555978655815125, 0.04747132956981659, 0.1822354942560196, 0.43565645813941956, 0.13099035620689392, -0.5863010287284851, -0.15759682655334473, 0.42855048179626465, -0.23463808000087738, 0.10128708928823471, -0.23415684700012207, 0.3524106740951538, -0.3272448778152466, 0.022551152855157852, -0.28516295552253723, 0.21282890439033508, 0.21805989742279053, 0.5184324979782104, -0.0722285583615303, -0.4541669487953186, 0.047277435660362244, -0.24509002268314362, 0.2223401814699173, -0.26057422161102295, -0.28286686539649963, 0.054041873663663864, 0.23796270787715912, -0.3460535705089569, -0.18420082330703735, 0.06454180926084518, 0.2136930525302887, -0.015576357953250408, 0.46426406502723694, -0.07171432673931122, 0.07284016162157059, -0.01795806735754013, -0.031689681112766266, -0.20762942731380463, -0.0927097275853157, -0.016820669174194336, -0.07683690637350082, -0.3798181116580963, -0.16145235300064087, -0.10439424961805344, 0.16271312534809113, -0.19003458321094513, -0.02957017906010151, -0.08808162808418274], [0.3073093593120575, -0.11117503046989441, 0.3156038224697113, 0.029226258397102356, 0.22962379455566406, -0.4823419749736786, 0.1973595917224884, -0.6148113012313843, -0.14658625423908234, -0.15316985547542572, -0.10985591262578964, 0.05837501212954521, 0.23123151063919067, -0.0019874675199389458, -0.379447877407074, -0.10944940894842148, -0.09603193402290344, 0.02696448564529419, 0.20431561768054962, 0.44724032282829285, 0.08302143216133118, -0.2796913683414459, -0.1681535840034485, 0.33353689312934875, -0.19598060846328735, -0.009119115769863129, -0.4991048574447632, 0.053055763244628906, -0.07532598823308945, -0.07804268598556519, -0.20715691149234772, 0.4201861023902893, -0.1498679667711258, -0.21649959683418274, -0.3517940640449524, -0.23851166665554047, -0.08475298434495926, -0.2582769989967346, 0.20030254125595093, 0.24866047501564026, 0.050633788108825684, -0.008435975760221481, 0.09269540756940842, -0.26476767659187317, -0.041615601629018784, 0.04303118959069252, 0.04961630329489708, 0.1495448350906372, 0.2726191282272339, -0.12204660475254059, -0.08453413844108582, 0.11643993854522705, -0.4422658085823059, -0.537335991859436, 0.02103489637374878, 0.04789881035685539, 0.08925551921129227, 0.07335542887449265, -0.03721465915441513, -0.27852165699005127, -0.09512796998023987, 0.03606867790222168, -0.031855713576078415, -0.12934020161628723], [0.0006776826339773834, 0.16183146834373474, 0.17272654175758362, -0.15203143656253815, 0.11799820512533188, 0.29662278294563293, -0.40813276171684265, 0.3625166714191437, 0.23655492067337036, 0.6580556035041809, 0.29492682218551636, 0.02347210794687271, -0.001488755689933896, 0.18502484261989594, 0.1796964555978775, 0.0293217021971941, 0.23517854511737823, 0.12560150027275085, 0.0497121699154377, -0.006028622854501009, 0.04983203485608101, 0.34601831436157227, 0.08441241085529327, -0.20452247560024261, 0.2612084150314331, 0.10124688595533371, 0.4230838119983673, 0.19420377910137177, 0.1923358142375946, -0.14156289398670197, 0.19579996168613434, 0.1596604883670807, 0.229384645819664, -0.15243732929229736, 0.32603010535240173, 0.5193968415260315, -0.7085670828819275, 0.15895384550094604, -0.06552529335021973, -0.22341841459274292, 0.2621852457523346, 0.08277496695518494, 0.008414624258875847, 0.2755974233150482, 0.1783302128314972, -0.14437606930732727, 0.12738053500652313, 0.2298397570848465, -0.1258082240819931, 0.05419114977121353, -0.01818884164094925, -0.02543732151389122, 0.22812633216381073, 0.14586789906024933, 0.07464016228914261, 0.1527540683746338, 0.10635620355606079, 0.2901903986930847, 0.1704512983560562, -0.04842295125126839, 0.15876591205596924, 0.35290154814720154, 0.08254735171794891, 0.14973393082618713], [0.04553263634443283, 0.22009791433811188, 0.24385550618171692, 0.1423138827085495, 0.19684548676013947, 0.1737130731344223, 0.04377451166510582, 0.3498172163963318, 0.3083757758140564, 0.5270969867706299, 0.3119652271270752, 0.20164968073368073, 0.1015801727771759, 0.3206549286842346, 0.2733497619628906, 0.2557648718357086, 0.39470595121383667, 0.2119647115468979, 0.0868261530995369, 0.05184061825275421, 0.07145507633686066, 0.4352943003177643, 0.12439022958278656, -0.2273855060338974, 0.3455944359302521, 0.21337763965129852, 0.4368685483932495, 0.11734539270401001, 0.3669281601905823, -0.06096253916621208, 0.23774604499340057, 0.1258513629436493, 0.04915887489914894, 0.03499804437160492, 0.4594027101993561, 0.6550044417381287, 0.12668296694755554, 0.11817727982997894, 0.033804673701524734, -0.24393242597579956, 0.36367449164390564, 0.21966683864593506, 0.03062942996621132, 0.16456899046897888, 0.10370776057243347, 0.23574499785900116, 0.36980462074279785, 0.19706378877162933, -0.005999484099447727, 0.10340183973312378, 0.3038802444934845, -0.03969258815050125, 0.3004790246486664, 0.1327238231897354, 0.13014674186706543, 0.017216337844729424, 0.29132744669914246, 0.24864636361598969, 0.298017293214798, 0.08206028491258621, 0.3769243359565735, 0.2506212294101715, 0.31645819544792175, -0.006875814404338598], [0.009848636575043201, 0.2316167652606964, 0.1177915409207344, -0.24353940784931183, 0.17555077373981476, 0.19855549931526184, -0.43352004885673523, 0.28553423285484314, 0.3291279673576355, 0.5701769590377808, 0.2470504641532898, -0.046762317419052124, 0.04345490038394928, 0.0716303214430809, 0.09608950465917587, -0.015335336327552795, 0.2822689712047577, 0.18304714560508728, -0.11295104026794434, -0.281279593706131, 0.23127326369285583, 0.3916335999965668, 0.12134896963834763, -0.15895383059978485, 0.27416834235191345, 0.026653096079826355, 0.16062873601913452, 0.12129662930965424, 0.22616441547870636, -0.15259674191474915, 0.2991223931312561, 0.023824816569685936, 0.17593196034431458, -0.0626189112663269, 0.2847630977630615, 0.5622842311859131, -0.7411132454872131, 0.040900204330682755, -0.10610122233629227, -0.21697300672531128, 0.2969988286495209, 0.029791593551635742, -0.0916665717959404, 0.3102474808692932, 0.030713511630892754, -0.15186122059822083, 0.22407257556915283, 0.19157664477825165, -0.13594940304756165, 0.012377727776765823, -0.07462833821773529, 0.12033819407224655, 0.20104548335075378, 0.1655486524105072, 0.21618050336837769, 0.12407025694847107, 0.1684841513633728, 0.33196935057640076, 0.1795116811990738, 0.03344472125172615, 0.26427778601646423, 0.2780652642250061, 0.08797978609800339, 0.09087947756052017], [0.07809466868638992, 0.031199472025036812, 0.104175865650177, -0.27310246229171753, 0.21092000603675842, 0.19705228507518768, -0.35315531492233276, 0.2533363997936249, 0.24417856335639954, 0.2931135892868042, 0.24365048110485077, -0.01921907439827919, -0.14909043908119202, 0.08976957201957703, 0.10025642812252045, -0.10122301429510117, 0.13313469290733337, 0.2647349536418915, -0.31203898787498474, -0.2764926552772522, 0.08426966518163681, 0.08581893891096115, 0.0522206611931324, -0.21531450748443604, 0.2096455842256546, 0.10301035642623901, 0.2320583611726761, -0.03164682164788246, 0.3241080939769745, -0.5761063694953918, 0.14521028101444244, -0.09922264516353607, -0.32947444915771484, -0.5744419693946838, 0.3658972382545471, 0.2828851342201233, -0.6915695667266846, 0.024524221196770668, -0.5149099230766296, -0.5496159195899963, 0.20610111951828003, 0.06529495120048523, 0.11192984133958817, 0.058920711278915405, 0.17710748314857483, -0.21375016868114471, -0.027680490165948868, 0.14887408912181854, -0.5025086998939514, -0.06952425837516785, -0.02607017196714878, 0.06203794106841087, -0.12191005051136017, 0.27131402492523193, 0.13645383715629578, 0.029870374128222466, 0.23351025581359863, -0.05699891224503517, 0.33403629064559937, -0.049212757498025894, 0.36738014221191406, 0.12939737737178802, 0.07157640159130096, -0.04920746758580208], [0.016129447147250175, 0.0648340955376625, 0.05600559711456299, 0.2005542814731598, 0.30892303586006165, 0.17535802721977234, -0.017360584810376167, 0.2487875074148178, 0.2975449860095978, 0.467881441116333, 0.2664468586444855, 0.2969106137752533, 0.028150804340839386, 0.1165773868560791, 0.17307527363300323, 0.13168860971927643, 0.25085127353668213, 0.23879007995128632, 0.000987999839708209, -0.07706557959318161, 0.35582926869392395, 0.5070965886116028, 0.2422381341457367, 0.016820542514324188, 0.1216801330447197, 0.1161150112748146, 0.25061652064323425, 0.12544988095760345, 0.27232030034065247, 0.12646429240703583, 0.15599922835826874, 0.17983095347881317, -0.11225836724042892, -0.013773988001048565, 0.23192927241325378, 0.6663017868995667, 0.11860314011573792, 0.21955753862857819, 0.004003037232905626, -0.05116383358836174, 0.39010658860206604, 0.19657601416110992, -0.0961998924612999, 0.24775207042694092, 0.06420821696519852, 0.030032802373170853, 0.351709246635437, 0.10667195916175842, 0.2199144810438156, 0.20873050391674042, 0.1623157560825348, 0.13183526694774628, 0.22443127632141113, 0.2781006395816803, 0.23067040741443634, 0.17823857069015503, 0.378435879945755, 0.21258439123630524, 0.25160104036331177, 0.20074522495269775, 0.33455392718315125, 0.28455686569213867, 0.15879599750041962, 0.21100471913814545], [0.05661653354763985, 0.04953973740339279, 0.21961043775081635, -0.18558692932128906, 0.17481538653373718, 0.20381303131580353, -0.31427398324012756, 0.37315335869789124, 0.44920945167541504, 0.5672796964645386, 0.2887558043003082, 0.13662612438201904, -0.0387105830013752, 0.13290412724018097, 0.14953309297561646, 0.05566604807972908, 0.3020339906215668, 0.2456386387348175, -0.07733827084302902, -0.17846007645130157, 0.17437899112701416, 0.4407043755054474, 0.23614272475242615, -0.2617449164390564, 0.3219204545021057, -0.0841759592294693, 0.15528039634227753, 0.061952948570251465, 0.334671288728714, -0.27754637598991394, 0.22289907932281494, -0.019509781152009964, -0.08011689782142639, -0.12692099809646606, 0.2952437996864319, 0.17050954699516296, -0.6981613636016846, 0.04688792675733566, -0.10499145835638046, -0.22635304927825928, 0.09375599026679993, 0.1904810518026352, 0.07357396930456161, 0.22667677700519562, 0.21748261153697968, -0.2536573112010956, 0.005370856262743473, 0.06141316890716553, -0.171874538064003, 0.05295119062066078, -0.12994131445884705, 0.11313781887292862, 0.22604434192180634, 0.09243255108594894, 0.12318726629018784, 0.1093531996011734, 0.30856791138648987, 0.22139254212379456, 0.201753631234169, 0.014222267083823681, 0.23116618394851685, 0.18213103711605072, 0.07966054230928421, -0.019765328615903854], [0.21539761126041412, 0.11176344752311707, 0.2528113126754761, 0.23222225904464722, 0.3101169764995575, 0.33324408531188965, 0.12537866830825806, 0.3725604712963104, 0.3129975199699402, 0.551443338394165, 0.1103159487247467, 0.2764638364315033, 0.0347328819334507, 0.2966323792934418, 0.1692030429840088, 0.3352537751197815, 0.3200956881046295, 0.13244959712028503, -0.023913275450468063, -0.0499376580119133, 0.18918274343013763, 0.27464571595191956, 0.2448531687259674, -0.2172110676765442, 0.319674015045166, 0.0896151140332222, 0.2379346638917923, 0.20815680921077728, 0.24006026983261108, 0.009400824084877968, 0.26335781812667847, 0.28367719054222107, -0.11194352805614471, 0.009197654202580452, 0.14482612907886505, 0.5309785604476929, 0.32279279828071594, 0.19127735495567322, -0.11144591867923737, -0.16011087596416473, 0.2845604717731476, 0.35553035140037537, 0.026196077466011047, 0.4132091701030731, 0.14634034037590027, 0.08191298693418503, 0.11684157699346542, 0.10567497462034225, 0.19995072484016418, 0.23597785830497742, 0.15895944833755493, 0.09462381154298782, 0.042090460658073425, 0.2069222629070282, 0.1205156221985817, 0.029725831001996994, 0.297656774520874, 0.3233773112297058, 0.17598550021648407, 0.14910033345222473, 0.3758380115032196, 0.2588892877101898, 0.24002064764499664, 0.08220140635967255], [-0.001478577614761889, 0.08304792642593384, -0.3016495108604431, -0.19354179501533508, -0.0007800643215887249, -0.13559699058532715, 0.2062472403049469, -0.26080945134162903, 0.12256505340337753, 0.0030047334730625153, -0.0015322270337492228, -0.09246259927749634, 0.12497024983167648, -0.0073352693580091, -0.18937081098556519, -0.1955084651708603, -0.03895093500614166, 0.07958061248064041, -0.3671328127384186, 0.2810083329677582, 0.07579894363880157, -0.4768681824207306, -0.0953657478094101, 0.2378206104040146, -0.20316874980926514, 0.044807787984609604, -0.03856858238577843, -0.012995007447898388, 0.06248879432678223, -0.268155962228775, 0.036679841578006744, 0.18669570982456207, 0.10340855270624161, -0.0464954674243927, -0.17844374477863312, 0.17387031018733978, 0.11725597828626633, 0.017310306429862976, -0.03189273551106453, -0.14959630370140076, 0.001086618285626173, -0.16241128742694855, -0.19389252364635468, -0.34847667813301086, 0.09217732399702072, -0.2757616937160492, -0.30445048213005066, 0.09142448008060455, -0.29262107610702515, 0.2703617811203003, 0.03959353640675545, 0.03405157849192619, -0.5599836111068726, 0.10644517093896866, -0.026691677048802376, 0.05743766948580742, -0.21361523866653442, -0.02977253682911396, 0.06302681565284729, 0.17886513471603394, 0.2807302176952362, 0.053124137222766876, -0.019799623638391495, -0.1549028903245926], [-0.03716086596250534, -0.08091167360544205, -0.1010996401309967, 0.05432012304663658, -0.07695864886045456, -0.6188843846321106, -0.15297794342041016, 0.13959164917469025, 0.1483817845582962, -5.689937461283989e-05, -0.0030764166731387377, 0.09149156510829926, 0.008032402023673058, 0.010311233811080456, 0.011218422092497349, 0.07620394974946976, -0.09995819628238678, -0.14666543900966644, 0.077560655772686, 0.23308569192886353, -0.09331735968589783, -0.26639989018440247, -0.16055631637573242, 0.34165552258491516, -0.23484709858894348, 0.22847409546375275, 0.13813334703445435, -0.1188514307141304, -0.13492345809936523, -0.09604593366384506, -0.06193587929010391, 0.08772066980600357, 0.052523981779813766, -0.015926146879792213, -0.304219514131546, -0.2746461033821106, -0.030644875019788742, -0.26227694749832153, 0.0209629088640213, -0.026394829154014587, -0.2835896611213684, 0.2743578851222992, -0.04542101174592972, -0.3499181568622589, -0.16674019396305084, -0.2516365647315979, -0.24830685555934906, 0.030697334557771683, -0.03971962630748749, -0.034038566052913666, 0.07131028175354004, 0.169690802693367, -0.141677588224411, -0.05060974135994911, -0.26603415608406067, -0.135776087641716, -0.18457327783107758, 0.006329271476715803, -0.15832248330116272, -0.23801912367343903, -0.047749511897563934, 0.10831349343061447, -0.3657081127166748, 0.09982326626777649], [0.1601410210132599, -0.09895425289869308, 0.4185274839401245, 0.16436967253684998, -0.18308354914188385, 0.1545076072216034, 0.16664595901966095, 0.06932998448610306, 0.1229938343167305, 0.2730602025985718, 0.01920616626739502, 0.30052807927131653, -0.21904538571834564, -0.02011924795806408, -0.10788211971521378, -0.48403799533843994, -0.7429988980293274, -0.0017359961057081819, 0.18286103010177612, -0.1589970737695694, -0.0763607770204544, -0.08335178345441818, -0.32882294058799744, 0.19119428098201752, 0.18612445890903473, -0.31081730127334595, -0.1921110600233078, -0.2475934773683548, 0.2084224820137024, 0.3457885682582855, -0.19367043673992157, -0.26131704449653625, 0.22837567329406738, 0.053135327994823456, 0.32128897309303284, -0.3743583858013153, 0.14436478912830353, -0.06609168648719788, -0.12117233127355576, 0.021258387714624405, -0.2244543582201004, -0.08410613238811493, -0.14860506355762482, -0.14587804675102234, 0.1374206244945526, -0.07692369818687439, 0.009705613367259502, -0.38744211196899414, 0.29246240854263306, -0.15712834894657135, -0.12624838948249817, -0.17242425680160522, -0.4647150933742523, 0.2566012442111969, 0.20946606993675232, -0.028055865317583084, -0.09716950356960297, -0.35353147983551025, -0.2594698369503021, -0.15299071371555328, 0.43238765001296997, 0.20414535701274872, 0.34580016136169434, -0.07118331640958786], [0.04464993253350258, 0.07237635552883148, 0.06725401431322098, 0.18491177260875702, 0.21055398881435394, -0.3104556202888489, 0.0925973430275917, 0.12684766948223114, 0.21093463897705078, -0.28625115752220154, -0.2829449772834778, -0.2366439551115036, 0.12296606600284576, 0.19373738765716553, 0.22337208688259125, 0.21871013939380646, -0.3514515161514282, -0.3265494108200073, -0.18209299445152283, 0.17720240354537964, 0.2885381579399109, -0.1461966186761856, 0.04550843685865402, 0.15949273109436035, -0.15238256752490997, 0.6000604629516602, 0.398991197347641, 0.19814059138298035, -0.15079258382320404, 0.2450123131275177, -0.06856551021337509, 0.03696268051862717, 0.3169262409210205, -0.2389681041240692, -0.24366404116153717, -0.2596115469932556, -0.18668660521507263, 0.02443568781018257, 0.08104768395423889, 0.4691450893878937, -0.15515461564064026, 0.0740811675786972, -0.13806703686714172, -0.060394033789634705, -0.18889248371124268, -0.2899813652038574, -0.22364823520183563, 0.4754278361797333, 0.08553019165992737, -0.10056962072849274, -0.13304434716701508, 0.13340166211128235, -0.09120369702577591, 0.23071441054344177, -0.2854453921318054, 0.24364623427391052, -0.3991762697696686, -0.18544800579547882, -0.3576083183288574, -0.30392178893089294, 0.06027652695775032, -0.011543113738298416, -0.014563580974936485, 0.42306897044181824], [-0.06093514710664749, -0.3800544738769531, 0.08712562918663025, 0.04610319808125496, -0.34048253297805786, 0.05832381546497345, -0.3914993703365326, -0.03347404673695564, 0.1188841313123703, -0.5153856873512268, -0.3444102704524994, -0.3747479021549225, -0.033680446445941925, 0.1196875274181366, 0.5205362439155579, 0.12078910320997238, 0.0601004920899868, 0.21045511960983276, 0.16379758715629578, 0.013773550279438496, 0.1557360142469406, 0.14390966296195984, 0.08675253391265869, -0.2562250792980194, 0.06182214617729187, -0.03880521282553673, 0.4985327124595642, -0.219981387257576, -0.15656493604183197, 0.6161318421363831, -0.03192112594842911, -0.0565190427005291, -0.05421674996614456, -0.066442109644413, -0.1591043472290039, 0.04986904561519623, -0.2854231595993042, 0.20027031004428864, -0.06584127992391586, 0.6665569543838501, -0.40395641326904297, 0.35650235414505005, 0.43392544984817505, 0.31864768266677856, -0.22708524763584137, 0.16019470989704132, 0.014414030127227306, 0.24833963811397552, 0.08914629369974136, 0.3328790068626404, 0.049030426889657974, 0.05803927779197693, 0.1655271351337433, -0.1606060415506363, 0.059303317219018936, -0.38044118881225586, -0.33521518111228943, 0.019871674478054047, 0.411249041557312, -0.035238608717918396, -0.002761001465842128, -0.2631930112838745, -0.09161518514156342, 0.35119500756263733], [-0.22275099158287048, 0.09000466018915176, -0.5845391154289246, -0.181181862950325, -0.15807253122329712, -0.24783456325531006, -0.23367787897586823, 0.6164090037345886, -0.17476987838745117, 0.15742844343185425, -0.2935258150100708, -0.569348156452179, -0.06564286351203918, -0.05481136217713356, 0.13804244995117188, -0.15140673518180847, 0.11155851930379868, 0.1586308628320694, -0.006588357500731945, -0.40236908197402954, 0.215793177485466, 0.3110579252243042, 0.0974406898021698, -0.15934891998767853, -0.03243613988161087, -0.08041290193796158, 0.539414644241333, -0.2125951498746872, -0.2147151529788971, 0.17180554568767548, -0.160866841673851, 0.18729433417320251, -0.15458257496356964, 0.007711070589721203, 0.2210090607404709, -0.17635633051395416, -0.2332204431295395, -0.05332937091588974, 0.3847638666629791, 0.3963164687156677, -0.259737491607666, -0.23498213291168213, 0.06816340982913971, 0.23020976781845093, -0.34005552530288696, 0.08920884877443314, 0.17865416407585144, -0.02015768550336361, -0.01578548550605774, -0.0649508610367775, -0.26276054978370667, 0.04444819316267967, 0.22311705350875854, 0.12636904418468475, 0.013444672338664532, -0.4832758605480194, -0.21465152502059937, -0.07055650651454926, -0.10364530235528946, -0.264028400182724, -0.3322150409221649, -0.6538169980049133, -0.6951455473899841, 0.3381441831588745], [0.20195907354354858, 0.08801793307065964, 0.10644285380840302, 0.01790398359298706, -0.16096307337284088, 0.1591414362192154, -0.06713556498289108, -0.30502063035964966, -0.3768863379955292, -0.5275014042854309, 0.006517715286463499, 0.1261499971151352, -0.030378131195902824, 0.10226906836032867, 0.03747299313545227, -0.07003612816333771, -0.21061097085475922, -0.058187853544950485, 0.09947849810123444, 0.2681179940700531, -0.03134546056389809, -0.43380802869796753, 0.07792826741933823, 0.407325804233551, 0.11711101233959198, 0.058030810207128525, -0.21887262165546417, 0.03911123424768448, -0.2909223735332489, 0.12526369094848633, 0.0038899544160813093, 0.11026117205619812, -0.019330408424139023, -0.0928967073559761, -0.25602471828460693, -0.48267751932144165, -0.017468443140387535, -0.19162636995315552, 0.11189486086368561, -0.08842828124761581, -0.4168833792209625, 0.17361460626125336, 0.06322145462036133, 0.13585181534290314, 0.01919303461909294, -0.13386806845664978, 0.2836354374885559, -0.15143661201000214, -0.24739691615104675, 0.027635104954242706, -0.055037207901477814, -0.02353137545287609, -0.34878644347190857, -0.02028857171535492, 0.0591900534927845, 0.21181991696357727, 0.17133702337741852, -0.15204231441020966, -0.011950450949370861, 0.029958494007587433, 0.06728171557188034, -0.05108114704489708, 0.240671306848526, 0.11589233577251434], [0.04492724686861038, 0.038238607347011566, 0.03359348326921463, -0.02877235785126686, 0.13240264356136322, 0.1613917052745819, -0.48690441250801086, 0.3899563252925873, 0.30199989676475525, 0.6306725740432739, 0.14644835889339447, 0.0336371511220932, 0.01434172224253416, 0.22580961883068085, 0.16324828565120697, -0.027728497982025146, 0.149097740650177, 0.2719534933567047, -0.06927768141031265, -0.2615949809551239, 0.23782676458358765, 0.3291238248348236, 0.2490268051624298, -0.29266539216041565, 0.25836795568466187, -0.10380316525697708, 0.2434583455324173, -0.031981926411390305, 0.20188334584236145, -0.15541650354862213, 0.20068569481372833, 0.1304929107427597, -0.14776073396205902, -0.31858423352241516, 0.3746373951435089, 0.4597923159599304, -0.7605683207511902, 0.2703423798084259, -0.387606680393219, -0.2117885947227478, 0.2861005961894989, 0.11412210017442703, -0.0034468413796275854, 0.18337993323802948, 0.0512954443693161, -0.1724316030740738, 0.0997413620352745, 0.08775805681943893, -0.30948352813720703, -0.10179659724235535, -0.16324806213378906, 0.07739140093326569, 0.11326517909765244, 0.07426059246063232, 0.1640757918357849, 0.20657271146774292, 0.2646839916706085, 0.31390663981437683, 0.289598286151886, -0.07125876098871231, 0.3325618505477905, 0.08783666044473648, 0.2843635678291321, 0.1631939858198166], [0.212815523147583, 0.03913835808634758, 0.12661823630332947, 0.05725550651550293, 0.30078065395355225, 0.15731465816497803, 0.12858697772026062, 0.46025022864341736, 0.39829641580581665, 0.5389304161071777, 0.24637828767299652, 0.26183217763900757, 0.12362627685070038, 0.11614097654819489, 0.3004888594150543, 0.3273845911026001, 0.45395195484161377, 0.15232190489768982, 0.10027366131544113, 0.03450459986925125, 